{"learner":{"attributes":{"scikit_learn":"{\"_estimator_type\": \"classifier\"}"},"feature_names":[],"feature_types":[],"gradient_booster":{"model":{"gbtree_model_param":{"num_parallel_tree":"1","num_trees":"500"},"iteration_indptr":[0,5,10,15,20,25,30,35,40,45,50,55,60,65,70,75,80,85,90,95,100,105,110,115,120,125,130,135,140,145,150,155,160,165,170,175,180,185,190,195,200,205,210,215,220,225,230,235,240,245,250,255,260,265,270,275,280,285,290,295,300,305,310,315,320,325,330,335,340,345,350,355,360,365,370,375,380,385,390,395,400,405,410,415,420,425,430,435,440,445,450,455,460,465,470,475,480,485,490,495,500],"tree_info":[0,1,2,3,4,0,1,2,3,4,0,1,2,3,4,0,1,2,3,4,0,1,2,3,4,0,1,2,3,4,0,1,2,3,4,0,1,2,3,4,0,1,2,3,4,0,1,2,3,4,0,1,2,3,4,0,1,2,3,4,0,1,2,3,4,0,1,2,3,4,0,1,2,3,4,0,1,2,3,4,0,1,2,3,4,0,1,2,3,4,0,1,2,3,4,0,1,2,3,4,0,1,2,3,4,0,1,2,3,4,0,1,2,3,4,0,1,2,3,4,0,1,2,3,4,0,1,2,3,4,0,1,2,3,4,0,1,2,3,4,0,1,2,3,4,0,1,2,3,4,0,1,2,3,4,0,1,2,3,4,0,1,2,3,4,0,1,2,3,4,0,1,2,3,4,0,1,2,3,4,0,1,2,3,4,0,1,2,3,4,0,1,2,3,4,0,1,2,3,4,0,1,2,3,4,0,1,2,3,4,0,1,2,3,4,0,1,2,3,4,0,1,2,3,4,0,1,2,3,4,0,1,2,3,4,0,1,2,3,4,0,1,2,3,4,0,1,2,3,4,0,1,2,3,4,0,1,2,3,4,0,1,2,3,4,0,1,2,3,4,0,1,2,3,4,0,1,2,3,4,0,1,2,3,4,0,1,2,3,4,0,1,2,3,4,0,1,2,3,4,0,1,2,3,4,0,1,2,3,4,0,1,2,3,4,0,1,2,3,4,0,1,2,3,4,0,1,2,3,4,0,1,2,3,4,0,1,2,3,4,0,1,2,3,4,0,1,2,3,4,0,1,2,3,4,0,1,2,3,4,0,1,2,3,4,0,1,2,3,4,0,1,2,3,4,0,1,2,3,4,0,1,2,3,4,0,1,2,3,4,0,1,2,3,4,0,1,2,3,4,0,1,2,3,4,0,1,2,3,4,0,1,2,3,4,0,1,2,3,4,0,1,2,3,4,0,1,2,3,4,0,1,2,3,4,0,1,2,3,4,0,1,2,3,4,0,1,2,3,4,0,1,2,3,4,0,1,2,3,4,0,1,2,3,4,0,1,2,3,4,0,1,2,3,4,0,1,2,3,4,0,1,2,3,4,0,1,2,3,4,0,1,2,3,4,0,1,2,3,4],"trees":[{"base_weights":[-1.5083572E-4,-4.6483043E-1,2.9269502E-1,7.6974326E-1,-4.8944443E-1,5.949271E-2,5.471447E-1,-1.4203398E-1,1.5853734E0,-5.427484E-1,-2.8919467E-1,-4.4128036E-1,2.218433E-1,-1.4102273E-2,6.578432E-1,-3.834189E-2,1.3176225E-1,-3.8871076E-2,1.8811908E-1,-2.4273526E-2,-5.8310807E-2,-5.7230033E-2,-1.7629733E-2,-5.4895163E-2,-8.178958E-3,1.1126628E-1,1.5649108E-2,1.7387773E-1,-1.2063467E-2,-4.506017E-3,7.5110905E-2],"categories":[],"categories_nodes":[],"categories_segments":[],"categories_sizes":[],"default_left":[0,0,0,0,0,0,0,0,0,0,0,0,0,0,0,0,0,0,0,0,0,0,0,0,0,0,0,0,0,0,0],"id":0,"left_children":[1,3,5,7,9,11,13,15,17,19,21,23,25,27,29,-1,-1,-1,-1,-1,-1,-1,-1,-1,-1,-1,-1,-1,-1,-1,-1],"loss_changes":[4.656813E2,4.057779E1,1.2452998E2,1.974569E1,1.3694641E1,8.924023E1,6.2371033E1,5.1954217E0,8.870075E0,1.2254272E1,8.687006E0,1.0358543E1,4.806891E1,3.1271624E1,5.499704E1,0E0,0E0,0E0,0E0,0E0,0E0,0E0,0E0,0E0,0E0,0E0,0E0,0E0,0E0,0E0,0E0],"parents":[2147483647,0,0,1,1,2,2,3,3,4,4,5,5,6,6,7,7,8,8,9,9,10,10,11,11,12,12,13,13,14,14],"right_children":[2,4,6,8,10,12,14,16,18,20,22,24,26,28,30,-1,-1,-1,-1,-1,-1,-1,-1,-1,-1,-1,-1,-1,-1,-1,-1],"split_conditions":[4.1723755E-1,-2.4095852E0,6.643483E-1,5.434388E-1,4.9361268E-1,4.2084968E-1,4.990809E-1,5.481364E-1,-1.5458512E0,-6.3037175E-1,-3.1573966E-1,1.9273148E-1,1.3219249E-1,-1.3757528E0,-3.6351773E-1,-3.834189E-2,1.3176225E-1,-3.8871076E-2,1.8811908E-1,-2.4273526E-2,-5.8310807E-2,-5.7230033E-2,-1.7629733E-2,-5.4895163E-2,-8.178958E-3,1.1126628E-1,1.5649108E-2,1.7387773E-1,-1.2063467E-2,-4.506017E-3,7.5110905E-2],"split_indices":[3,6,1,4,0,0,3,1,1,6,4,5,1,5,4,0,0,0,0,0,0,0,0,0,0,0,0,0,0,0,0],"split_type":[0,0,0,0,0,0,0,0,0,0,0,0,0,0,0,0,0,0,0,0,0,0,0,0,0,0,0,0,0,0,0],"sum_hessian":[3.4201274E3,1.3219333E3,2.098194E3,2.5248787E1,1.2966846E3,1.0954508E3,1.0027432E3,1.2311669E1,1.2937119E1,1.02273505E3,2.7394955E2,2.6777533E2,8.2767554E2,1.653389E2,8.3740436E2,1.1197285E1,1.114384E0,1.6450634E0,1.1292055E1,1.221023E2,9.006327E2,7.694076E1,1.9700879E2,2.0565306E2,6.2122288E1,5.5474483E1,7.7220105E2,8.595032E0,1.5674387E2,9.8156876E1,7.392475E2],"tree_param":{"num_deleted":"0","num_feature":"7","num_nodes":"31","size_leaf_vector":"1"}},{"base_weights":[-7.3998563E-6,-3.7052524E-1,3.171112E-1,-5.1357603E-1,2.3296373E-3,-3.8057473E-1,3.8426507E-1,-5.919669E-1,-1.829277E-1,1.1985535E-1,-4.852271E-1,1.28333E0,-4.2678252E-1,8.6810935E-1,2.4299891E-1,-6.0337443E-2,-4.7321983E-2,1.2954214E-1,-5.6861736E-2,-3.5231967E-2,2.356578E-2,-6.1716367E-2,1.1750152E-1,1.7288426E-2,1.5686639E-1,1.1332859E-1,-4.5674723E-2,-4.7713863E-3,1.0422341E-1,-4.5060482E-2,3.1784467E-2],"categories":[],"categories_nodes":[],"categories_segments":[],"categories_sizes":[],"default_left":[0,0,0,0,0,0,0,0,0,0,0,0,0,0,0,0,0,0,0,0,0,0,0,0,0,0,0,0,0,0,0],"id":1,"left_children":[1,3,5,7,9,11,13,15,17,19,21,23,25,27,29,-1,-1,-1,-1,-1,-1,-1,-1,-1,-1,-1,-1,-1,-1,-1,-1],"loss_changes":[4.020935E2,8.417734E1,8.653902E1,2.9455597E1,2.518997E1,1.3034067E1,1.1479178E2,9.628296E-1,1.2619845E2,1.9450878E1,1.942895E1,1.1982565E0,7.939394E0,6.062195E1,6.782234E1,0E0,0E0,0E0,0E0,0E0,0E0,0E0,0E0,0E0,0E0,0E0,0E0,0E0,0E0,0E0,0E0],"parents":[2147483647,0,0,1,1,2,2,3,3,4,4,5,5,6,6,7,7,8,8,9,9,10,10,11,11,12,12,13,13,14,14],"right_children":[2,4,6,8,10,12,14,16,18,20,22,24,26,28,30,-1,-1,-1,-1,-1,-1,-1,-1,-1,-1,-1,-1,-1,-1,-1,-1],"split_conditions":[4.7017744E-1,4.489707E-1,-1.2423286E0,5.434388E-1,6.770029E-1,-1.6496984E0,-3.4548885E-1,3.4174955E-1,1.6636822E0,-1.2539278E0,5.9007376E-1,-2.515064E0,-1.1085356E0,4.8163307E-1,-4.1359547E-1,-6.0337443E-2,-4.7321983E-2,1.2954214E-1,-5.6861736E-2,-3.5231967E-2,2.356578E-2,-6.1716367E-2,1.1750152E-1,1.7288426E-2,1.5686639E-1,1.1332859E-1,-4.5674723E-2,-4.7713863E-3,1.0422341E-1,-4.5060482E-2,3.1784467E-2],"split_indices":[1,0,5,4,3,2,6,1,4,6,6,6,4,0,4,0,0,0,0,0,0,0,0,0,0,0,0,0,0,0,0],"split_type":[0,0,0,0,0,0,0,0,0,0,0,0,0,0,0,0,0,0,0,0,0,0,0,0,0,0,0,0,0,0,0],"sum_hessian":[3.4201274E3,1.577189E3,1.8429385E3,1.1395918E3,4.375971E2,1.6140245E2,1.681536E3,9.205544E2,2.1903749E2,3.5320993E2,8.438719E1,3.637729E0,1.5776472E2,3.7884073E2,1.3026953E3,8.3614813E2,8.440625E1,4.4833168E1,1.7420432E2,6.916261E1,2.840473E2,7.87568E1,5.6303945E0,1.0719354E0,2.5657935E0,2.2792296E0,1.5548549E2,6.0637714E1,3.18203E2,1.26391464E2,1.1763038E3],"tree_param":{"num_deleted":"0","num_feature":"7","num_nodes":"31","size_leaf_vector":"1"}},{"base_weights":[5.2749634E-5,9.393409E-1,-3.610194E-1,1.1530471E0,8.180022E-4,-4.0589455E-1,1.6032046E0,-1.5726165E-1,1.3434831E0,4.0832165E-1,-5.044584E-1,-1.646395E-1,-5.056017E-1,1.9275829E0,9.361887E-2,1.16380945E-1,-5.69726E-2,1.2175689E-1,2.3074637E-1,9.121815E-2,-7.228659E-3,-5.8850117E-2,-8.020158E-3,1.5386117E-2,-4.431502E-2,-1.4908858E-2,-5.4874208E-2,2.0035069E-1,-3.551441E-2,1.3360132E-1,-1.9099234E-2],"categories":[],"categories_nodes":[],"categories_segments":[],"categories_sizes":[],"default_left":[0,0,0,0,0,0,0,0,0,0,0,0,0,0,0,0,0,0,0,0,0,0,0,0,0,0,0,0,0,0,0],"id":2,"left_children":[1,3,5,7,9,11,13,15,17,19,21,23,25,27,29,-1,-1,-1,-1,-1,-1,-1,-1,-1,-1,-1,-1,-1,-1,-1,-1],"loss_changes":[1.1606172E3,1.9058398E2,2.1853616E2,1.933435E2,3.6700222E1,5.806909E1,2.695465E1,5.466726E1,7.922742E1,2.3958742E1,2.7901096E0,6.290969E1,2.6219086E1,8.6080475E0,4.092546E0,0E0,0E0,0E0,0E0,0E0,0E0,0E0,0E0,0E0,0E0,0E0,0E0,0E0,0E0,0E0,0E0],"parents":[2147483647,0,0,1,1,2,2,3,3,4,4,5,5,6,6,7,7,8,8,9,9,10,10,11,11,12,12,13,13,14,14],"right_children":[2,4,6,8,10,12,14,16,18,20,22,24,26,28,30,-1,-1,-1,-1,-1,-1,-1,-1,-1,-1,-1,-1,-1,-1,-1,-1],"split_conditions":[1.5938458E-1,5.434388E-1,1.9228157E0,-9.900077E-1,-5.7358384E-1,4.7835454E-1,7.090031E-1,-6.5520227E-1,1.1920707E0,-1.01569116E-1,-7.4807465E-2,5.216756E-1,2.9799873E-1,8.31636E-1,2.3319048E-1,1.16380945E-1,-5.69726E-2,1.2175689E-1,2.3074637E-1,9.121815E-2,-7.228659E-3,-5.8850117E-2,-8.020158E-3,1.5386117E-2,-4.431502E-2,-1.4908858E-2,-5.4874208E-2,2.0035069E-1,-3.551441E-2,1.3360132E-1,-1.9099234E-2],"split_indices":[2,4,6,4,1,3,0,3,6,5,2,2,1,2,3,0,0,0,0,0,0,0,0,0,0,0,0,0,0,0,0],"split_type":[0,0,0,0,0,0,0,0,0,0,0,0,0,0,0,0,0,0,0,0,0,0,0,0,0,0,0,0,0,0,0],"sum_hessian":[3.4201274E3,9.4922504E2,2.4709023E3,7.729842E2,1.7624084E2,2.416488E3,5.441433E1,9.8109436E1,6.7487476E2,9.766569E1,7.857515E1,7.0742584E2,1.7090623E3,4.4561996E1,9.852333E0,2.2910004E1,7.519943E1,5.989089E2,7.596586E1,4.7241108E1,5.042458E1,6.526033E1,1.331482E1,3.3022873E2,3.771971E2,1.8496469E2,1.5240975E3,4.3245945E1,1.3160508E0,1.1477907E0,8.704543E0],"tree_param":{"num_deleted":"0","num_feature":"7","num_nodes":"31","size_leaf_vector":"1"}},{"base_weights":[5.2720367E-5,6.327322E-1,-2.8279802E-1,-2.1022192E-1,8.3254886E-1,1.2986416E-1,-3.795729E-1,6.260049E-1,-3.1073272E-1,1.9059316E0,6.959471E-1,-2.5610882E-1,1.0489867E0,-4.5915046E-1,-8.004353E-2,-2.6333967E-2,1.7180271E-1,-5.0660204E-2,-9.436983E-3,7.243722E-2,2.3836672E-1,8.736249E-2,-4.947146E-2,8.298052E-2,-4.6855006E-2,1.5427764E-1,-3.1362083E-2,-3.565458E-2,-5.8426388E-2,-4.4719856E-2,9.6280895E-2],"categories":[],"categories_nodes":[],"categories_segments":[],"categories_sizes":[],"default_left":[0,0,0,0,0,0,0,0,0,0,0,0,0,0,0,0,0,0,0,0,0,0,0,0,0,0,0,0,0,0,0],"id":3,"left_children":[1,3,5,7,9,11,13,15,17,19,21,23,25,27,29,-1,-1,-1,-1,-1,-1,-1,-1,-1,-1,-1,-1,-1,-1,-1,-1],"loss_changes":[6.1240295E2,1.7825555E2,9.4491104E1,1.7289505E1,1.2401929E2,1.599041E2,4.5629913E1,2.196933E1,7.6751328E0,5.242627E1,1.6119879E2,7.3682144E1,9.015781E1,1.9221008E1,1.5487645E2,0E0,0E0,0E0,0E0,0E0,0E0,0E0,0E0,0E0,0E0,0E0,0E0,0E0,0E0,0E0,0E0],"parents":[2147483647,0,0,1,1,2,2,3,3,4,4,5,5,6,6,7,7,8,8,9,9,10,10,11,11,12,12,13,13,14,14],"right_children":[2,4,6,8,10,12,14,16,18,20,22,24,26,28,30,-1,-1,-1,-1,-1,-1,-1,-1,-1,-1,-1,-1,-1,-1,-1,-1],"split_conditions":[2.854032E-1,-3.750916E-1,-3.8308057E-1,-7.3407733E-1,-9.900077E-1,3.6894688E-1,1.9383073E0,-4.9573663E-1,-1.3757238E0,-6.5520227E-1,1.0401076E0,2.8300968E-1,1.1920707E0,6.828837E-1,2.8552657E-1,-2.6333967E-2,1.7180271E-1,-5.0660204E-2,-9.436983E-3,7.243722E-2,2.3836672E-1,8.736249E-2,-4.947146E-2,8.298052E-2,-4.6855006E-2,1.5427764E-1,-3.1362083E-2,-3.565458E-2,-5.8426388E-2,-4.4719856E-2,9.6280895E-2],"split_indices":[3,6,4,4,4,5,4,3,6,3,6,0,6,1,5,0,0,0,0,0,0,0,0,0,0,0,0,0,0,0,0],"split_type":[0,0,0,0,0,0,0,0,0,0,0,0,0,0,0,0,0,0,0,0,0,0,0,0,0,0,0,0,0,0,0],"sum_hessian":[3.4201274E3,1.0562576E3,2.3638699E3,2.0239104E2,8.538665E2,4.4898605E2,1.9148839E3,2.1155333E1,1.812357E2,9.493541E1,7.589311E2,3.1670953E2,1.322765E2,1.5125135E3,4.0237036E2,1.2077912E1,9.077419E0,9.441873E1,8.681697E1,2.8057781E1,6.6877625E1,6.606162E2,9.831493E1,5.1345577E1,2.6536395E2,9.699476E1,3.5281754E1,8.3312384E2,6.7938965E2,2.9801868E2,1.0435168E2],"tree_param":{"num_deleted":"0","num_feature":"7","num_nodes":"31","size_leaf_vector":"1"}},{"base_weights":[5.2765576E-5,1.3130528E0,-1.9476703E-1,-5.8102083E-1,1.8339818E0,-5.995669E-1,-3.9168477E-2,-6.177457E-2,-2.3992583E-1,2.1317239E0,1.1910539E0,-6.1196685E-1,-3.6029175E-1,1.3183689E-1,-5.6477535E-1,-5.550096E-2,7.6130025E-2,7.615824E-2,2.2688667E-1,1.8992923E-1,8.393564E-2,-6.164818E-2,-8.401932E-3,9.5356606E-2,-4.3637548E-2,3.104112E-2,-9.0575805E-3,-3.6404263E-2,-6.0198553E-2],"categories":[],"categories_nodes":[],"categories_segments":[],"categories_sizes":[],"default_left":[0,0,0,0,0,0,0,0,0,0,0,0,0,0,0,0,0,0,0,0,0,0,0,0,0,0,0,0,0],"id":4,"left_children":[1,3,5,7,9,11,13,-1,15,17,19,21,23,25,27,-1,-1,-1,-1,-1,-1,-1,-1,-1,-1,-1,-1,-1,-1],"loss_changes":[8.753747E2,4.373352E2,1.8767351E2,1.0560455E0,6.389087E1,2.234192E0,1.93646E2,0E0,3.886269E0,4.2602173E1,2.6330032E1,1.8197632E0,4.7339587E0,6.459886E1,3.7310944E0,0E0,0E0,0E0,0E0,0E0,0E0,0E0,0E0,0E0,0E0,0E0,0E0,0E0,0E0],"parents":[2147483647,0,0,1,1,2,2,3,3,4,4,5,5,6,6,8,8,9,9,10,10,11,11,12,12,13,13,14,14],"right_children":[2,4,6,8,10,12,14,-1,16,18,20,22,24,26,28,-1,-1,-1,-1,-1,-1,-1,-1,-1,-1,-1,-1,-1,-1],"split_conditions":[-1.2283976E0,7.732138E-2,1.0313329E-1,1.404678E-1,6.1920774E-1,1.6821754E0,6.0941947E-1,-6.177457E-2,2.5757251E-2,-1.0854784E-1,6.017252E-1,8.0525255E-1,-1.0880876E0,5.4633874E-1,6.346759E-1,-5.550096E-2,7.6130025E-2,7.615824E-2,2.2688667E-1,1.8992923E-1,8.393564E-2,-6.164818E-2,-8.401932E-3,9.5356606E-2,-4.3637548E-2,3.104112E-2,-9.0575805E-3,-3.6404263E-2,-6.0198553E-2],"split_indices":[5,2,2,3,1,5,5,0,0,1,0,3,4,2,6,0,0,0,0,0,0,0,0,0,0,0,0,0,0],"split_type":[0,0,0,0,0,0,0,0,0,0,0,0,0,0,0,0,0,0,0,0,0,0,0,0,0,0,0,0,0],"sum_hessian":[3.4201274E3,4.411603E2,2.978967E3,9.513574E1,3.4602457E2,8.263389E2,2.1526282E3,8.515613E1,9.979616E0,2.349177E2,1.11106865E2,7.841446E2,4.2194347E1,1.6247632E3,5.27865E2,7.929796E0,2.0498202E0,2.1970657E1,2.1294704E2,3.5406303E1,7.570056E1,7.7732916E2,6.8153744E0,1.6783588E0,4.0515987E1,9.009768E2,7.2378644E2,8.423538E1,4.4362964E2],"tree_param":{"num_deleted":"0","num_feature":"7","num_nodes":"29","size_leaf_vector":"1"}},{"base_weights":[3.2552646E-4,-4.5539826E-1,2.670562E-1,6.9693387E-1,-4.806255E-1,-5.463217E-1,3.283548E-1,-1.3139302E-1,1.3591003E0,-2.1343869E-1,-5.2019614E-1,8.872837E-1,-5.7623416E-1,1.4361024E-1,5.022105E-1,-3.7304275E-2,1.2451147E-1,-3.787182E-2,1.5869302E-1,-4.1961245E-2,4.7068864E-2,-5.6627806E-2,-2.844356E-2,-3.144739E-2,1.5166995E-1,1.9725875E-3,-5.835658E-2,-3.3103447E-2,2.5942374E-2,-6.5688924E-3,5.9676558E-2],"categories":[],"categories_nodes":[],"categories_segments":[],"categories_sizes":[],"default_left":[0,0,0,0,0,0,0,0,0,0,0,0,0,0,0,0,0,0,0,0,0,0,0,0,0,0,0,0,0,0,0],"id":5,"left_children":[1,3,5,7,9,11,13,15,17,19,21,23,25,27,29,-1,-1,-1,-1,-1,-1,-1,-1,-1,-1,-1,-1,-1,-1,-1,-1],"loss_changes":[4.1543622E2,3.701584E1,1.07668304E2,1.5229274E1,1.2950195E1,7.006344E0,6.433913E1,4.82278E0,6.6736393E0,2.2913965E1,1.1521423E1,3.116369E0,6.6241837E-1,5.360785E1,5.549536E1,0E0,0E0,0E0,0E0,0E0,0E0,0E0,0E0,0E0,0E0,0E0,0E0,0E0,0E0,0E0,0E0],"parents":[2147483647,0,0,1,1,2,2,3,3,4,4,5,5,6,6,7,7,8,8,9,9,10,10,11,11,12,12,13,13,14,14],"right_children":[2,4,6,8,10,12,14,16,18,20,22,24,26,28,30,-1,-1,-1,-1,-1,-1,-1,-1,-1,-1,-1,-1,-1,-1,-1,-1],"split_conditions":[4.131821E-1,-2.4095852E0,-1.4527427E0,5.434388E-1,-6.3037175E-1,-8.504286E-1,6.643483E-1,5.481364E-1,-1.5458512E0,-1.1535546E0,3.0758992E-1,-9.900077E-1,4.3696815E-1,4.0028545E-1,4.908902E-1,-3.7304275E-2,1.2451147E-1,-3.787182E-2,1.5869302E-1,-4.1961245E-2,4.7068864E-2,-5.6627806E-2,-2.844356E-2,-3.144739E-2,1.5166995E-1,1.9725875E-3,-5.835658E-2,-3.3103447E-2,2.5942374E-2,-6.5688924E-3,5.9676558E-2],"split_indices":[3,6,5,4,6,0,1,1,1,5,3,4,3,2,3,0,0,0,0,0,0,0,0,0,0,0,0,0,0,0,0],"split_type":[0,0,0,0,0,0,0,0,0,0,0,0,0,0,0,0,0,0,0,0,0,0,0,0,0,0,0,0,0,0,0],"sum_hessian":[3.415666E3,1.260805E3,2.154861E3,2.6440226E1,1.2343649E3,1.5046127E2,2.0043998E3,1.2102439E1,1.4337787E1,1.6005354E2,1.0743113E3,2.489409E0,1.4797186E2,9.726534E2,1.0317463E3,1.0915233E1,1.1872057E0,1.5850677E0,1.2752719E1,1.2328584E2,3.67677E1,8.974862E2,1.7682509E2,1.0276555E0,1.4617536E0,1.7777122E0,1.4619415E2,1.9041342E2,7.8224E2,1.4730933E2,8.84437E2],"tree_param":{"num_deleted":"0","num_feature":"7","num_nodes":"31","size_leaf_vector":"1"}},{"base_weights":[3.492103E-4,-3.573549E-1,2.9095358E-1,-5.012931E-1,3.6908817E-3,-3.6363703E-1,3.4989828E-1,-5.808994E-1,-1.7874193E-1,1.14327826E-1,-4.7397065E-1,1.1508381E0,-4.1036135E-1,7.498249E-1,2.149302E-1,-5.926023E-2,-4.6071768E-2,1.1198151E-1,-5.60026E-2,-3.3387724E-2,2.1834105E-2,-6.0845114E-2,1.04044616E-1,1.7063346E-2,1.379815E-1,1.0426809E-1,-4.4092357E-2,-5.192444E-4,9.303625E-2,-4.2441856E-2,2.8295526E-2],"categories":[],"categories_nodes":[],"categories_segments":[],"categories_sizes":[],"default_left":[0,0,0,0,0,0,0,0,0,0,0,0,0,0,0,0,0,0,0,0,0,0,0,0,0,0,0,0,0,0,0],"id":6,"left_children":[1,3,5,7,9,11,13,15,17,19,21,23,25,27,29,-1,-1,-1,-1,-1,-1,-1,-1,-1,-1,-1,-1,-1,-1,-1,-1],"loss_changes":[3.5529044E2,7.962076E1,7.289084E1,2.80224E1,2.318458E1,1.153083E1,9.3248764E1,9.6203613E-1,1.0869838E2,1.6677711E1,1.7436329E1,8.7330484E-1,7.2247295E0,5.947087E1,5.6454117E1,0E0,0E0,0E0,0E0,0E0,0E0,0E0,0E0,0E0,0E0,0E0,0E0,0E0,0E0,0E0,0E0],"parents":[2147483647,0,0,1,1,2,2,3,3,4,4,5,5,6,6,7,7,8,8,9,9,10,10,11,11,12,12,13,13,14,14],"right_children":[2,4,6,8,10,12,14,16,18,20,22,24,26,28,30,-1,-1,-1,-1,-1,-1,-1,-1,-1,-1,-1,-1,-1,-1,-1,-1],"split_conditions":[4.7017744E-1,4.489707E-1,-1.2423286E0,5.434388E-1,6.770029E-1,-1.6496984E0,-1.806129E-1,3.4174955E-1,1.6636822E0,-1.2539278E0,5.9007376E-1,-2.515064E0,-1.1085356E0,5.12167E-1,-4.1359547E-1,-5.926023E-2,-4.6071768E-2,1.1198151E-1,-5.60026E-2,-3.3387724E-2,2.1834105E-2,-6.0845114E-2,1.04044616E-1,1.7063346E-2,1.379815E-1,1.0426809E-1,-4.4092357E-2,-5.192444E-4,9.303625E-2,-4.2441856E-2,2.8295526E-2],"split_indices":[1,0,5,4,3,2,5,1,4,6,6,6,4,0,4,0,0,0,0,0,0,0,0,0,0,0,0,0,0,0,0],"split_type":[0,0,0,0,0,0,0,0,0,0,0,0,0,0,0,0,0,0,0,0,0,0,0,0,0,0,0,0,0,0,0],"sum_hessian":[3.415885E3,1.5310679E3,1.884817E3,1.094382E3,4.366859E2,1.5527654E2,1.7295405E3,8.771087E2,2.1727325E2,3.5517923E2,8.150668E1,3.9399683E0,1.5133656E2,4.3525925E2,1.2942812E3,7.956957E2,8.141301E1,4.8876225E1,1.6839703E2,6.648363E1,2.886956E2,7.5408615E1,6.09807E0,1.076573E0,2.8633952E0,2.4353259E0,1.4890125E2,8.4181046E1,3.5107822E2,1.2396157E2,1.1703197E3],"tree_param":{"num_deleted":"0","num_feature":"7","num_nodes":"31","size_leaf_vector":"1"}},{"base_weights":[-4.0819036E-4,8.2314545E-1,-3.482065E-1,9.98821E-1,-5.726266E-3,-3.9288428E-1,1.3705009E0,-1.4723188E-1,1.1482174E0,3.666337E-1,-4.959639E-1,-1.569474E-1,-4.9311185E-1,1.616346E0,8.927249E-2,1.0123571E-1,-5.5765655E-2,1.0494425E-1,1.8548366E-1,-5.952422E-2,5.6958325E-2,-5.807994E-2,-8.253641E-3,1.4784398E-2,-4.3258045E-2,-1.3831948E-2,-5.3718455E-2,1.6879663E-1,-1.2838058E-2,1.22752346E-1,-1.867075E-2],"categories":[],"categories_nodes":[],"categories_segments":[],"categories_sizes":[],"default_left":[0,0,0,0,0,0,0,0,0,0,0,0,0,0,0,0,0,0,0,0,0,0,0,0,0,0,0,0,0,0,0],"id":7,"left_children":[1,3,5,7,9,11,13,15,17,19,21,23,25,27,29,-1,-1,-1,-1,-1,-1,-1,-1,-1,-1,-1,-1,-1,-1,-1,-1],"loss_changes":[9.7918506E2,1.4780908E2,1.8510089E2,1.4356934E2,3.276716E1,5.5338074E1,1.9107384E1,4.6955116E1,4.9776917E1,2.0255505E1,2.6695824E0,5.888446E1,2.5636414E1,6.6172028E0,3.6526759E0,0E0,0E0,0E0,0E0,0E0,0E0,0E0,0E0,0E0,0E0,0E0,0E0,0E0,0E0,0E0,0E0],"parents":[2147483647,0,0,1,1,2,2,3,3,4,4,5,5,6,6,7,7,8,8,9,9,10,10,11,11,12,12,13,13,14,14],"right_children":[2,4,6,8,10,12,14,16,18,20,22,24,26,28,30,-1,-1,-1,-1,-1,-1,-1,-1,-1,-1,-1,-1,-1,-1,-1,-1],"split_conditions":[1.5938458E-1,5.434388E-1,1.9228157E0,-9.900077E-1,-5.7358384E-1,4.7835454E-1,7.090031E-1,-6.5520227E-1,1.1920707E0,1.4660087E0,-7.4807465E-2,5.216756E-1,2.9799873E-1,6.9905376E-1,2.3319048E-1,1.0123571E-1,-5.5765655E-2,1.0494425E-1,1.8548366E-1,-5.952422E-2,5.6958325E-2,-5.807994E-2,-8.253641E-3,1.4784398E-2,-4.3258045E-2,-1.3831948E-2,-5.3718455E-2,1.6879663E-1,-1.2838058E-2,1.22752346E-1,-1.867075E-2],"split_indices":[2,4,6,4,1,3,0,3,6,4,2,2,1,3,3,0,0,0,0,0,0,0,0,0,0,0,0,0,0,0,0],"split_type":[0,0,0,0,0,0,0,0,0,0,0,0,0,0,0,0,0,0,0,0,0,0,0,0,0,0,0,0,0,0,0],"sum_hessian":[3.4165767E3,1.01404553E3,2.402531E3,8.3653973E2,1.7750581E2,2.3424114E3,6.0119556E1,9.647476E1,7.4006494E2,1.01024666E2,7.648115E1,6.991559E2,1.6432556E3,5.0221394E1,9.89816E0,2.4836525E1,7.163824E1,6.5148254E2,8.85824E1,1.7264915E1,8.375975E1,6.312337E1,1.3357777E1,3.3223663E2,3.6691925E2,1.8202922E2,1.4612263E3,4.827237E1,1.9490244E0,1.2587413E0,8.639419E0],"tree_param":{"num_deleted":"0","num_feature":"7","num_nodes":"31","size_leaf_vector":"1"}},{"base_weights":[-9.8534816E-5,5.679757E-1,-2.7132556E-1,2.0834361E-1,9.6009696E-1,1.2104477E-1,-3.6677873E-1,7.574174E-1,-3.4976036E-3,1.1808704E0,-2.400273E-1,-2.7001178E-1,8.8416994E-1,-4.4689745E-1,-7.153093E-2,-1.854807E-2,9.780638E-2,-1.4798145E-2,6.1249226E-2,1.6815303E-1,9.45553E-2,1.6540325E-1,-5.626787E-2,6.779384E-2,-4.7069732E-2,1.224035E-1,-2.976796E-2,-3.4460865E-2,-5.7390846E-2,-4.3282554E-2,8.612111E-2],"categories":[],"categories_nodes":[],"categories_segments":[],"categories_sizes":[],"default_left":[0,0,0,0,0,0,0,0,0,0,0,0,0,0,0,0,0,0,0,0,0,0,0,0,0,0,0,0,0,0,0],"id":8,"left_children":[1,3,5,7,9,11,13,15,17,19,21,23,25,27,29,-1,-1,-1,-1,-1,-1,-1,-1,-1,-1,-1,-1,-1,-1,-1,-1],"loss_changes":[5.266753E2,1.5557535E2,8.669643E1,6.717148E1,1.4022559E2,1.3556303E2,4.3993515E1,3.3629776E1,3.726558E1,5.098755E1,5.159038E1,5.7502747E1,6.217106E1,1.8818604E1,1.3464452E2,0E0,0E0,0E0,0E0,0E0,0E0,0E0,0E0,0E0,0E0,0E0,0E0,0E0,0E0,0E0,0E0],"parents":[2147483647,0,0,1,1,2,2,3,3,4,4,5,5,6,6,7,7,8,8,9,9,10,10,11,11,12,12,13,13,14,14],"right_children":[2,4,6,8,10,12,14,16,18,20,22,24,26,28,30,-1,-1,-1,-1,-1,-1,-1,-1,-1,-1,-1,-1,-1,-1,-1,-1],"split_conditions":[2.854032E-1,1.6746722E-2,-3.8308057E-1,-2.2745287E0,1.6115433E0,2.4443856E-1,1.9383073E0,-3.750916E-1,1.6636822E0,-3.7524617E-1,-9.900077E-1,2.8300968E-1,1.1920707E0,6.828837E-1,2.8552657E-1,-1.854807E-2,9.780638E-2,-1.4798145E-2,6.1249226E-2,1.6815303E-1,9.45553E-2,1.6540325E-1,-5.626787E-2,6.779384E-2,-4.7069732E-2,1.224035E-1,-2.976796E-2,-3.4460865E-2,-5.7390846E-2,-4.3282554E-2,8.612111E-2],"split_indices":[3,5,4,0,6,5,4,6,4,4,4,0,6,1,5,0,0,0,0,0,0,0,0,0,0,0,0,0,0,0,0],"split_type":[0,0,0,0,0,0,0,0,0,0,0,0,0,0,0,0,0,0,0,0,0,0,0,0,0,0,0,0,0,0,0],"sum_hessian":[3.4162585E3,1.1036382E3,2.3126204E3,5.764663E2,5.271719E2,4.5246155E2,1.8601588E3,1.597731E2,4.166932E2,4.452755E2,8.189633E1,2.9958704E2,1.528745E2,1.4627201E3,3.974388E2,3.032847E1,1.2944463E2,3.381403E2,7.855292E1,1.40405E2,3.048705E2,1.13197365E1,7.057659E1,5.192728E1,2.4765976E2,1.1870324E2,3.4171253E1,8.1226917E2,6.504509E2,2.8686035E2,1.1057846E2],"tree_param":{"num_deleted":"0","num_feature":"7","num_nodes":"31","size_leaf_vector":"1"}},{"base_weights":[-1.6786209E-4,1.1298496E0,-1.8568827E-1,-5.718323E-1,1.5301267E0,-5.8860534E-1,-3.804762E-2,-6.092612E-2,-2.3493323E-1,1.7537222E0,1.0498204E0,-6.0148656E-1,-3.436834E-1,1.2204453E-1,-5.547598E-1,-5.4846503E-2,7.029929E-2,6.7280225E-2,1.8551572E-1,1.9481413E-1,8.378218E-2,-6.0617156E-2,-7.363816E-3,9.0626046E-2,-4.211918E-2,-1.4936186E-2,2.5869092E-2,-3.52084E-2,-5.9291977E-2],"categories":[],"categories_nodes":[],"categories_segments":[],"categories_sizes":[],"default_left":[0,0,0,0,0,0,0,0,0,0,0,0,0,0,0,0,0,0,0,0,0,0,0,0,0,0,0,0,0],"id":9,"left_children":[1,3,5,7,9,11,13,-1,15,17,19,21,23,25,27,-1,-1,-1,-1,-1,-1,-1,-1,-1,-1,-1,-1,-1,-1],"loss_changes":[7.166206E2,3.2922736E2,1.7464662E2,1.0236053E0,4.0099854E1,2.2771912E0,1.7791273E2,0E0,3.5848494E0,2.7805908E1,2.2467361E1,1.8018799E0,4.418992E0,6.0942337E1,3.7257843E0,0E0,0E0,0E0,0E0,0E0,0E0,0E0,0E0,0E0,0E0,0E0,0E0,0E0,0E0],"parents":[2147483647,0,0,1,1,2,2,3,3,4,4,5,5,6,6,8,8,9,9,10,10,11,11,12,12,13,13,14,14],"right_children":[2,4,6,8,10,12,14,-1,16,18,20,22,24,26,28,-1,-1,-1,-1,-1,-1,-1,-1,-1,-1,-1,-1,-1,-1],"split_conditions":[-1.2283976E0,7.732138E-2,1.0313329E-1,1.404678E-1,6.04434E-1,1.6821754E0,6.0941947E-1,-6.092612E-2,2.5757251E-2,-1.0854784E-1,4.4713232E-1,8.0525255E-1,-1.0880876E0,-3.153851E-1,6.346759E-1,-5.4846503E-2,7.029929E-2,6.7280225E-2,1.8551572E-1,1.9481413E-1,8.378218E-2,-6.0617156E-2,-7.363816E-3,9.0626046E-2,-4.211918E-2,-1.4936186E-2,2.5869092E-2,-3.52084E-2,-5.9291977E-2],"split_indices":[5,2,2,3,1,5,5,0,0,1,3,3,4,6,6,0,0,0,0,0,0,0,0,0,0,0,0,0,0],"split_type":[0,0,0,0,0,0,0,0,0,0,0,0,0,0,0,0,0,0,0,0,0,0,0,0,0,0,0,0,0],"sum_hessian":[3.4163176E3,4.8105975E2,2.9352578E3,9.152684E1,3.895329E2,7.863343E2,2.1489233E3,8.164751E1,9.879335E0,2.6398813E2,1.255448E2,7.456618E2,4.0672535E1,1.6411975E3,5.0772592E2,7.71544E0,2.1638956E0,2.330254E1,2.4068558E2,2.2407225E1,1.0313757E2,7.3895465E2,6.7070966E0,1.7505044E0,3.892203E1,5.495638E2,1.0916338E3,8.206856E1,4.2565735E2],"tree_param":{"num_deleted":"0","num_feature":"7","num_nodes":"29","size_leaf_vector":"1"}},{"base_weights":[8.2859956E-4,-4.4255355E-1,2.4607016E-1,6.4480907E-1,-4.6807012E-1,-5.33471E-1,3.0061334E-1,-1.1902219E-1,1.2040299E0,-1.9599125E-1,-5.078966E-1,8.3046794E-1,-5.645089E-1,-1.15022E-1,3.668634E-1,-3.617151E-2,1.18787825E-1,-3.7304606E-2,1.3937253E-1,-4.0306333E-2,5.005486E-2,-5.5448707E-2,-2.7641246E-2,-3.1241259E-2,1.4014988E-1,2.6308266E-3,-5.721279E-2,-5.98067E-2,5.3234776E-3,3.0062615E-3,4.5360867E-2],"categories":[],"categories_nodes":[],"categories_segments":[],"categories_sizes":[],"default_left":[0,0,0,0,0,0,0,0,0,0,0,0,0,0,0,0,0,0,0,0,0,0,0,0,0,0,0,0,0,0,0],"id":10,"left_children":[1,3,5,7,9,11,13,15,17,19,21,23,25,27,29,-1,-1,-1,-1,-1,-1,-1,-1,-1,-1,-1,-1,-1,-1,-1,-1],"loss_changes":[3.7071362E2,3.398987E1,9.349475E1,1.2214385E1,1.2761719E1,6.5609283E0,5.6552185E1,4.5068517E0,5.427683E0,2.2295782E1,1.1006195E1,2.7915618E0,6.5110016E-1,2.302504E1,5.1708054E1,0E0,0E0,0E0,0E0,0E0,0E0,0E0,0E0,0E0,0E0,0E0,0E0,0E0,0E0,0E0,0E0],"parents":[2147483647,0,0,1,1,2,2,3,3,4,4,5,5,6,6,7,7,8,8,9,9,10,10,11,11,12,12,13,13,14,14],"right_children":[2,4,6,8,10,12,14,16,18,20,22,24,26,28,30,-1,-1,-1,-1,-1,-1,-1,-1,-1,-1,-1,-1,-1,-1,-1,-1],"split_conditions":[4.131821E-1,-2.4095852E0,-1.4527427E0,5.434388E-1,-6.6941655E-1,-8.504286E-1,3.85646E-1,5.481364E-1,-1.5458512E0,-1.1535546E0,3.0758992E-1,-9.900077E-1,4.3696815E-1,-3.5361174E-1,4.9249455E-1,-3.617151E-2,1.18787825E-1,-3.7304606E-2,1.3937253E-1,-4.0306333E-2,5.005486E-2,-5.5448707E-2,-2.7641246E-2,-3.1241259E-2,1.4014988E-1,2.6308266E-3,-5.721279E-2,-5.98067E-2,5.3234776E-3,3.0062615E-3,4.5360867E-2],"split_indices":[3,6,5,4,6,0,2,1,1,5,3,4,3,4,3,0,0,0,0,0,0,0,0,0,0,0,0,0,0,0,0],"split_type":[0,0,0,0,0,0,0,0,0,0,0,0,0,0,0,0,0,0,0,0,0,0,0,0,0,0,0,0,0,0,0],"sum_hessian":[3.4073071E3,1.2131677E3,2.1941394E3,2.7259554E1,1.1859081E3,1.4290688E2,2.0512324E3,1.1854644E1,1.540491E1,1.5218188E2,1.0337262E3,2.606564E0,1.4030031E2,2.8190414E2,1.7693284E3,1.060796E1,1.2466836E0,1.5502224E0,1.3854688E1,1.1763261E2,3.4549282E1,8.593673E2,1.7435893E2,1.0193331E0,1.5872308E0,1.7549998E0,1.3854532E2,7.216698E1,2.0973718E2,3.626469E2,1.4066814E3],"tree_param":{"num_deleted":"0","num_feature":"7","num_nodes":"31","size_leaf_vector":"1"}},{"base_weights":[6.9063116E-4,-3.4228644E-1,2.7047378E-1,-4.9018916E-1,6.6752383E-3,-3.4672874E-1,3.2284552E-1,-5.707912E-1,-1.7703018E-1,1.1265467E-1,-4.5924193E-1,1.0435939E0,-3.940183E-1,7.054077E-1,2.0435835E-1,-5.827998E-2,-4.5151133E-2,9.8073944E-2,-5.5160414E-2,-3.190658E-2,2.0618226E-2,-6.026764E-2,9.886148E-2,1.5474661E-2,1.2381514E-1,2.30012E-2,-4.700422E-2,4.4332426E-2,1.14800446E-1,-4.226919E-2,2.6423797E-2],"categories":[],"categories_nodes":[],"categories_segments":[],"categories_sizes":[],"default_left":[0,0,0,0,0,0,0,0,0,0,0,0,0,0,0,0,0,0,0,0,0,0,0,0,0,0,0,0,0,0,0],"id":11,"left_children":[1,3,5,7,9,11,13,15,17,19,21,23,25,27,29,-1,-1,-1,-1,-1,-1,-1,-1,-1,-1,-1,-1,-1,-1,-1,-1],"loss_changes":[3.1542416E2,7.746614E1,6.178763E1,2.650592E1,2.2160587E1,1.02551365E1,7.960376E1,9.3707275E-1,9.474418E1,1.482708E1,1.7868065E1,7.074976E-1,7.011942E0,4.770343E1,5.060151E1,0E0,0E0,0E0,0E0,0E0,0E0,0E0,0E0,0E0,0E0,0E0,0E0,0E0,0E0,0E0,0E0],"parents":[2147483647,0,0,1,1,2,2,3,3,4,4,5,5,6,6,7,7,8,8,9,9,10,10,11,11,12,12,13,13,14,14],"right_children":[2,4,6,8,10,12,14,16,18,20,22,24,26,28,30,-1,-1,-1,-1,-1,-1,-1,-1,-1,-1,-1,-1,-1,-1,-1,-1],"split_conditions":[4.7444296E-1,4.489707E-1,-1.2423286E0,5.434388E-1,6.770029E-1,-1.6496984E0,-3.4548885E-1,3.4174955E-1,1.6636822E0,-1.2539278E0,6.566101E-1,-2.8091016E-1,-1.0880876E0,-5.3303754E-1,-4.1359547E-1,-5.827998E-2,-4.5151133E-2,9.8073944E-2,-5.5160414E-2,-3.190658E-2,2.0618226E-2,-6.026764E-2,9.886148E-2,1.5474661E-2,1.2381514E-1,2.30012E-2,-4.700422E-2,4.4332426E-2,1.14800446E-1,-4.226919E-2,2.6423797E-2],"split_indices":[1,0,5,4,3,2,6,1,4,6,6,0,4,5,4,0,0,0,0,0,0,0,0,0,0,0,0,0,0,0,0],"split_type":[0,0,0,0,0,0,0,0,0,0,0,0,0,0,0,0,0,0,0,0,0,0,0,0,0,0,0,0,0,0,0],"sum_hessian":[3.4069055E3,1.4998578E3,1.9070477E3,1.0531075E3,4.4675027E2,1.4872295E2,1.7583247E3,8.368845E2,2.1622304E2,3.6457968E2,8.2170586E1,4.199141E0,1.445238E2,4.1463382E2,1.3436909E3,7.5680634E2,8.0078186E1,5.24591E1,1.6376395E2,6.4489006E1,3.000907E2,7.529509E1,6.8754954E0,1.076494E0,3.122647E0,1.547491E1,1.290489E2,2.6168112E2,1.529527E2,1.16601265E2,1.2270897E3],"tree_param":{"num_deleted":"0","num_feature":"7","num_nodes":"31","size_leaf_vector":"1"}},{"base_weights":[-9.876523E-4,7.293562E-1,-3.3576295E-1,8.770298E-1,-1.0298894E-2,-3.8315257E-1,1.1026713E0,-1.3837843E-1,9.978834E-1,3.306663E-1,-4.8672938E-1,-1.5520157E-1,-4.820436E-1,1.5832032E0,6.3199496E-1,9.0677306E-2,-5.472805E-2,1.6814566E-1,9.2723936E-2,7.576086E-2,-9.907956E-3,-5.72527E-2,-8.549239E-3,1.368006E-2,-4.2957526E-2,-1.2789453E-2,-5.2733082E-2,1.4275822E-2,1.766331E-1,-3.257815E-2,1.440236E-1],"categories":[],"categories_nodes":[],"categories_segments":[],"categories_sizes":[],"default_left":[0,0,0,0,0,0,0,0,0,0,0,0,0,0,0,0,0,0,0,0,0,0,0,0,0,0,0,0,0,0,0],"id":12,"left_children":[1,3,5,7,9,11,13,15,17,19,21,23,25,27,29,-1,-1,-1,-1,-1,-1,-1,-1,-1,-1,-1,-1,-1,-1,-1,-1],"loss_changes":[8.327309E2,1.1693506E2,1.5961627E2,1.0964215E2,2.9262081E1,5.0907135E1,1.5904396E1,4.1432648E1,3.6954834E1,1.9342247E1,2.5374718E0,5.500025E1,2.5222748E1,9.328476E0,3.0987156E1,0E0,0E0,0E0,0E0,0E0,0E0,0E0,0E0,0E0,0E0,0E0,0E0,0E0,0E0,0E0,0E0],"parents":[2147483647,0,0,1,1,2,2,3,3,4,4,5,5,6,6,7,7,8,8,9,9,10,10,11,11,12,12,13,13,14,14],"right_children":[2,4,6,8,10,12,14,16,18,20,22,24,26,28,30,-1,-1,-1,-1,-1,-1,-1,-1,-1,-1,-1,-1,-1,-1,-1,-1],"split_conditions":[1.5938458E-1,5.434388E-1,1.7987915E0,-9.900077E-1,-5.7358384E-1,4.7835454E-1,-3.239026E-1,-6.5520227E-1,-1.2627932E0,-1.01569116E-1,-7.4807465E-2,5.216756E-1,2.9799873E-1,3.7947616E-1,-2.0189087E-1,9.0677306E-2,-5.472805E-2,1.6814566E-1,9.2723936E-2,7.576086E-2,-9.907956E-3,-5.72527E-2,-8.549239E-3,1.368006E-2,-4.2957526E-2,-1.2789453E-2,-5.2733082E-2,1.4275822E-2,1.766331E-1,-3.257815E-2,1.440236E-1],"split_indices":[2,4,6,4,1,3,4,3,5,5,2,2,1,2,4,0,0,0,0,0,0,0,0,0,0,0,0,0,0,0,0],"split_type":[0,0,0,0,0,0,0,0,0,0,0,0,0,0,0,0,0,0,0,0,0,0,0,0,0,0,0,0,0,0,0],"sum_hessian":[3.4038357E3,1.0694817E3,2.3343538E3,8.913385E2,1.781432E2,2.260611E3,7.3742874E1,9.478798E1,7.9655054E2,1.0401158E2,7.413162E1,6.847596E2,1.5758514E3,3.5319805E1,3.8423065E1,2.6313425E1,6.8474556E1,7.247348E1,7.240771E2,5.179327E1,5.221831E1,6.0720657E1,1.3410965E1,3.319661E2,3.527935E2,1.7910025E2,1.3967512E3,4.184549E0,3.1135258E1,1.7858007E1,2.0565056E1],"tree_param":{"num_deleted":"0","num_feature":"7","num_nodes":"31","size_leaf_vector":"1"}},{"base_weights":[-1.6583306E-4,5.192463E-1,-2.5788695E-1,1.9664204E-1,8.584284E-1,1.1714816E-1,-3.5145655E-1,6.815906E-1,-1.6127082E-3,1.0319978E0,-2.8751835E-1,-2.5921974E-1,7.9861385E-1,-4.3301618E-1,-6.255067E-2,-1.8154433E-2,8.710068E-2,-1.4015617E-2,5.817774E-2,1.4281772E-1,8.324979E-2,1.3385311E-1,-5.4800745E-2,-4.479435E-2,7.177459E-2,1.0774205E-1,-2.8182734E-2,-3.294273E-2,-5.645108E-2,-4.188962E-2,7.905556E-2],"categories":[],"categories_nodes":[],"categories_segments":[],"categories_sizes":[],"default_left":[0,0,0,0,0,0,0,0,0,0,0,0,0,0,0,0,0,0,0,0,0,0,0,0,0,0,0,0,0,0,0],"id":13,"left_children":[1,3,5,7,9,11,13,15,17,19,21,23,25,27,29,-1,-1,-1,-1,-1,-1,-1,-1,-1,-1,-1,-1,-1,-1,-1,-1],"loss_changes":[4.5606393E2,1.2346045E2,7.994853E1,5.5799835E1,1.0978653E2,1.1701717E2,4.2920288E1,2.769284E1,3.3458458E1,3.6613342E1,3.1735085E1,5.4555634E1,4.918911E1,1.9173035E1,1.2267161E2,0E0,0E0,0E0,0E0,0E0,0E0,0E0,0E0,0E0,0E0,0E0,0E0,0E0,0E0,0E0,0E0],"parents":[2147483647,0,0,1,1,2,2,3,3,4,4,5,5,6,6,7,7,8,8,9,9,10,10,11,11,12,12,13,13,14,14],"right_children":[2,4,6,8,10,12,14,16,18,20,22,24,26,28,30,-1,-1,-1,-1,-1,-1,-1,-1,-1,-1,-1,-1,-1,-1,-1,-1],"split_conditions":[2.7251935E-1,1.6746722E-2,-3.8308057E-1,-2.2745287E0,1.6656284E0,2.4443856E-1,1.6636822E0,-3.750916E-1,1.6636822E0,-3.7524617E-1,-9.900077E-1,-1.0512272E0,1.1920707E0,6.828837E-1,2.8552657E-1,-1.8154433E-2,8.710068E-2,-1.4015617E-2,5.817774E-2,1.4281772E-1,8.324979E-2,1.3385311E-1,-5.4800745E-2,-4.479435E-2,7.177459E-2,1.0774205E-1,-2.8182734E-2,-3.294273E-2,-5.645108E-2,-4.188962E-2,7.905556E-2],"split_indices":[3,5,4,0,6,5,4,6,4,4,4,4,6,1,5,0,0,0,0,0,0,0,0,0,0,0,0,0,0,0,0],"split_type":[0,0,0,0,0,0,0,0,0,0,0,0,0,0,0,0,0,0,0,0,0,0,0,0,0,0,0,0,0,0,0],"sum_hessian":[3.404933E3,1.1288433E3,2.2760898E3,5.793702E2,5.494731E2,4.5443253E2,1.8216572E3,1.6741656E2,4.119536E2,4.7728165E2,7.219144E1,2.931486E2,1.6128394E2,1.4202223E3,4.0143494E2,3.0135614E1,1.3728094E2,3.3351114E2,7.844246E1,1.5778452E2,3.1949713E2,9.396596E0,6.2794846E1,2.46142E2,4.7006596E1,1.2820387E2,3.308007E1,7.96366E2,6.238563E2,2.835176E2,1.1791732E2],"tree_param":{"num_deleted":"0","num_feature":"7","num_nodes":"31","size_leaf_vector":"1"}},{"base_weights":[-3.6713108E-4,9.912228E-1,-1.7681515E-1,-5.6307447E-1,1.3127702E0,-5.7872987E-1,-3.6225867E-2,-6.012984E-2,-2.2924782E-1,1.4726101E0,8.588576E-1,-5.921199E-1,-3.2813853E-1,1.1411777E-1,-5.452139E-1,-5.4162662E-2,6.512312E-2,-5.5316683E-2,1.509858E-1,1.4726333E-1,6.2063772E-2,-5.9698164E-2,-6.630332E-3,8.6935334E-2,-4.0708896E-2,4.8403274E-2,2.2139696E-3,-3.404465E-2,-5.844301E-2],"categories":[],"categories_nodes":[],"categories_segments":[],"categories_sizes":[],"default_left":[0,0,0,0,0,0,0,0,0,0,0,0,0,0,0,0,0,0,0,0,0,0,0,0,0,0,0,0,0],"id":14,"left_children":[1,3,5,7,9,11,13,-1,15,17,19,21,23,25,27,-1,-1,-1,-1,-1,-1,-1,-1,-1,-1,-1,-1,-1,-1],"loss_changes":[5.959586E2,2.5790097E2,1.6337009E2,9.965477E-1,2.9690002E1,2.3199005E0,1.640766E2,0E0,3.3093672E0,2.4538635E1,1.56829605E1,1.775589E0,4.159205E0,5.6313637E1,3.7270203E0,0E0,0E0,0E0,0E0,0E0,0E0,0E0,0E0,0E0,0E0,0E0,0E0,0E0,0E0],"parents":[2147483647,0,0,1,1,2,2,3,3,4,4,5,5,6,6,8,8,9,9,10,10,11,11,12,12,13,13,14,14],"right_children":[2,4,6,8,10,12,14,-1,16,18,20,22,24,26,28,-1,-1,-1,-1,-1,-1,-1,-1,-1,-1,-1,-1,-1,-1],"split_conditions":[-1.2283976E0,7.732138E-2,1.0313329E-1,1.404678E-1,6.6905737E-1,1.6821754E0,6.0941947E-1,-6.012984E-2,2.5757251E-2,2.0731183E-2,4.5012972E-1,8.0525255E-1,-1.0880876E0,4.1728503E-1,6.346759E-1,-5.4162662E-2,6.512312E-2,-5.5316683E-2,1.509858E-1,1.4726333E-1,6.2063772E-2,-5.9698164E-2,-6.630332E-3,8.6935334E-2,-4.0708896E-2,4.8403274E-2,2.2139696E-3,-3.404465E-2,-5.844301E-2],"split_indices":[5,2,2,3,0,5,5,0,0,3,3,3,4,2,6,0,0,0,0,0,0,0,0,0,0,0,0,0,0],"split_type":[0,0,0,0,0,0,0,0,0,0,0,0,0,0,0,0,0,0,0,0,0,0,0,0,0,0,0,0,0],"sum_hessian":[3.4041758E3,5.135495E2,2.8906262E3,8.790119E1,4.256483E2,7.482948E2,2.1423315E3,7.815144E1,9.74975E0,3.131367E2,1.1251159E2,7.0904517E2,3.9249645E1,1.6544266E3,4.8790475E2,7.480609E0,2.2691412E0,5.403591E0,3.077331E2,3.0009638E1,8.250195E1,7.024151E2,6.630044E0,1.8084422E0,3.74412E1,3.286019E2,1.3258248E3,7.997852E1,4.0792624E2],"tree_param":{"num_deleted":"0","num_feature":"7","num_nodes":"29","size_leaf_vector":"1"}},{"base_weights":[1.3358446E-3,-4.3011427E-1,2.2717649E-1,6.068859E-1,-4.5591155E-1,-5.213719E-1,2.7590933E-1,-1.0188599E-1,1.0856717E0,-1.802878E-1,-4.9687114E-1,7.8723377E-1,-5.535949E-1,1.15132034E-1,4.2277554E-1,-3.4627598E-2,1.1245139E-1,-3.6280774E-2,1.2453151E-1,-3.862693E-2,4.657907E-2,-5.5123437E-2,-2.8935457E-2,-3.1251412E-2,1.3226996E-1,3.6216588E-3,-5.6154914E-2,-3.6877554E-2,2.1630246E-2,2.3680137E-2,6.496596E-2],"categories":[],"categories_nodes":[],"categories_segments":[],"categories_sizes":[],"default_left":[0,0,0,0,0,0,0,0,0,0,0,0,0,0,0,0,0,0,0,0,0,0,0,0,0,0,0,0,0,0,0],"id":15,"left_children":[1,3,5,7,9,11,13,15,17,19,21,23,25,27,29,-1,-1,-1,-1,-1,-1,-1,-1,-1,-1,-1,-1,-1,-1,-1,-1],"loss_changes":[3.3109122E2,3.1509628E1,8.1507195E1,9.872994E0,1.2777435E1,6.1991196E0,4.9414E1,4.1396394E0,4.441948E0,2.001275E1,1.1028259E1,2.5907576E0,6.489105E-1,4.910478E1,4.602217E1,0E0,0E0,0E0,0E0,0E0,0E0,0E0,0E0,0E0,0E0,0E0,0E0,0E0,0E0,0E0,0E0],"parents":[2147483647,0,0,1,1,2,2,3,3,4,4,5,5,6,6,7,7,8,8,9,9,10,10,11,11,12,12,13,13,14,14],"right_children":[2,4,6,8,10,12,14,16,18,20,22,24,26,28,30,-1,-1,-1,-1,-1,-1,-1,-1,-1,-1,-1,-1,-1,-1,-1,-1],"split_conditions":[4.131821E-1,-2.4095852E0,-1.4527427E0,5.434388E-1,-6.6941655E-1,-8.504286E-1,6.643483E-1,5.481364E-1,-1.5458512E0,-1.1535546E0,4.9361268E-1,-9.900077E-1,4.3696815E-1,4.2084968E-1,6.264125E-1,-3.4627598E-2,1.1245139E-1,-3.6280774E-2,1.2453151E-1,-3.862693E-2,4.657907E-2,-5.5123437E-2,-2.8935457E-2,-3.1251412E-2,1.3226996E-1,3.6216588E-3,-5.6154914E-2,-3.6877554E-2,2.1630246E-2,2.3680137E-2,6.496596E-2],"split_indices":[3,6,5,4,6,0,1,1,1,5,0,4,3,0,3,0,0,0,0,0,0,0,0,0,0,0,0,0,0,0,0],"split_type":[0,0,0,0,0,0,0,0,0,0,0,0,0,0,0,0,0,0,0,0,0,0,0,0,0,0,0,0,0,0,0],"sum_hessian":[3.3959314E3,1.1665082E3,2.229423E3,2.776789E1,1.1387402E3,1.356779E2,2.093745E3,1.151251E1,1.625538E1,1.4802914E2,9.907111E2,2.6975346E0,1.3298038E2,1.0003866E3,1.0933586E3,1.0197966E1,1.3145444E0,1.4873868E0,1.4767994E1,1.1254871E2,3.5480434E1,7.8373834E2,2.0697276E2,1.0196769E0,1.6778576E0,1.7222458E0,1.3125813E2,1.725273E2,8.278593E2,6.019726E2,4.9138602E2],"tree_param":{"num_deleted":"0","num_feature":"7","num_nodes":"31","size_leaf_vector":"1"}},{"base_weights":[1.0153813E-3,-3.4966186E-1,2.3630951E-1,-4.8244694E-1,-1.128144E-2,-3.4800264E-1,2.8670955E-1,-5.6377125E-1,-1.7798682E-1,8.235862E-2,-4.853651E-1,9.3941844E-1,-3.961225E-1,5.884466E-1,1.7727233E-1,-5.736162E-2,-4.215732E-2,8.492945E-2,-5.4098487E-2,5.1585443E-2,-4.8894577E-5,-5.9309024E-2,9.85216E-2,1.2907646E-2,1.0995163E-1,9.605806E-2,-4.2510524E-2,-2.330221E-3,7.4619494E-2,-5.3417345E-4,3.7266355E-2],"categories":[],"categories_nodes":[],"categories_segments":[],"categories_sizes":[],"default_left":[0,0,0,0,0,0,0,0,0,0,0,0,0,0,0,0,0,0,0,0,0,0,0,0,0,0,0,0,0,0,0],"id":16,"left_children":[1,3,5,7,9,11,13,15,17,19,21,23,25,27,29,-1,-1,-1,-1,-1,-1,-1,-1,-1,-1,-1,-1,-1,-1,-1,-1],"loss_changes":[2.8024277E2,6.127266E1,5.995775E1,2.4150253E1,1.7147951E1,1.0398848E1,6.1702347E1,8.3961487E-1,7.799564E1,1.1588474E1,1.0676911E1,6.5310335E-1,6.5708313E0,4.8050735E1,4.9062935E1,0E0,0E0,0E0,0E0,0E0,0E0,0E0,0E0,0E0,0E0,0E0,0E0,0E0,0E0,0E0,0E0],"parents":[2147483647,0,0,1,1,2,2,3,3,4,4,5,5,6,6,7,7,8,8,9,9,10,10,11,11,12,12,13,13,14,14],"right_children":[2,4,6,8,10,12,14,16,18,20,22,24,26,28,30,-1,-1,-1,-1,-1,-1,-1,-1,-1,-1,-1,-1,-1,-1,-1,-1],"split_conditions":[4.3714422E-1,4.489707E-1,-1.2423286E0,5.434388E-1,6.770029E-1,-1.6496984E0,-1.806129E-1,3.4174955E-1,1.6636822E0,-1.0880876E0,8.0896276E-1,-2.3678086E0,-1.1085356E0,5.22844E-1,4.2207414E-1,-5.736162E-2,-4.215732E-2,8.492945E-2,-5.4098487E-2,5.1585443E-2,-4.8894577E-5,-5.9309024E-2,9.85216E-2,1.2907646E-2,1.0995163E-1,9.605806E-2,-4.2510524E-2,-2.330221E-3,7.4619494E-2,-5.3417345E-4,3.7266355E-2],"split_indices":[1,0,5,4,3,2,5,1,4,4,6,5,4,0,5,0,0,0,0,0,0,0,0,0,0,0,0,0,0,0,0],"split_type":[0,0,0,0,0,0,0,0,0,0,0,0,0,0,0,0,0,0,0,0,0,0,0,0,0,0,0,0,0,0,0],"sum_hessian":[3.3943743E3,1.3628003E3,2.031574E3,9.7842664E2,3.8437363E2,1.6085052E2,1.8707235E3,7.714997E2,2.0692697E2,3.2166525E2,6.27084E1,5.1281137E0,1.5572241E2,4.9674246E2,1.373981E3,7.18707E2,5.2792755E1,5.3678265E1,1.532487E2,5.077276E1,2.708925E2,5.8984295E1,3.7241056E0,1.1439909E0,3.9841228E0,2.5847616E0,1.5313765E2,1.0200786E2,3.9473462E2,7.1071454E2,6.632665E2],"tree_param":{"num_deleted":"0","num_feature":"7","num_nodes":"31","size_leaf_vector":"1"}},{"base_weights":[-1.6007014E-3,6.529584E-1,-3.238146E-1,7.7952415E-1,-1.3448644E-2,-3.7079206E-1,9.86642E-1,-1.3012294E-1,8.7972605E-1,3.0011526E-1,-4.7728112E-1,-1.4657897E-1,-4.7057182E-1,1.1856877E0,1.5049808E-1,8.212701E-2,-5.37526E-2,8.022377E-2,1.4210182E-1,-5.890469E-2,4.7035098E-2,-5.64538E-2,-8.434313E-3,-4.3669783E-2,1.2186302E-2,-1.17252525E-2,-5.169748E-2,1.3437633E-1,-2.0240057E-2,1.2031593E-1,-5.675388E-2],"categories":[],"categories_nodes":[],"categories_segments":[],"categories_sizes":[],"default_left":[0,0,0,0,0,0,0,0,0,0,0,0,0,0,0,0,0,0,0,0,0,0,0,0,0,0,0,0,0,0,0],"id":17,"left_children":[1,3,5,7,9,11,13,15,17,19,21,23,25,27,29,-1,-1,-1,-1,-1,-1,-1,-1,-1,-1,-1,-1,-1,-1,-1,-1],"loss_changes":[7.14088E2,9.421353E1,1.4004294E2,8.566992E1,2.621335E1,4.8950073E1,1.293528E1,3.6878723E1,3.43291E1,1.6558464E1,2.4445457E0,5.271896E1,2.47919E1,1.4204903E1,1.3000025E1,0E0,0E0,0E0,0E0,0E0,0E0,0E0,0E0,0E0,0E0,0E0,0E0,0E0,0E0,0E0,0E0],"parents":[2147483647,0,0,1,1,2,2,3,3,4,4,5,5,6,6,7,7,8,8,9,9,10,10,11,11,12,12,13,13,14,14],"right_children":[2,4,6,8,10,12,14,16,18,20,22,24,26,28,30,-1,-1,-1,-1,-1,-1,-1,-1,-1,-1,-1,-1,-1,-1,-1,-1],"split_conditions":[1.5938458E-1,5.434388E-1,1.7987915E0,-9.900077E-1,-5.7358384E-1,4.7835454E-1,5.7913226E-1,-6.5520227E-1,1.1920707E0,1.4660087E0,-7.4807465E-2,2.4769288E-1,2.9799873E-1,7.921005E-1,-3.3317086E-1,8.212701E-2,-5.37526E-2,8.022377E-2,1.4210182E-1,-5.890469E-2,4.7035098E-2,-5.64538E-2,-8.434313E-3,-4.3669783E-2,1.2186302E-2,-1.17252525E-2,-5.169748E-2,1.3437633E-1,-2.0240057E-2,1.2031593E-1,-5.675388E-2],"split_indices":[2,4,6,4,1,3,3,3,6,4,2,6,1,2,4,0,0,0,0,0,0,0,0,0,0,0,0,0,0,0,0],"split_type":[0,0,0,0,0,0,0,0,0,0,0,0,0,0,0,0,0,0,0,0,0,0,0,0,0,0,0,0,0,0,0],"sum_hessian":[3.3837761E3,1.1158877E3,2.2678884E3,9.3763916E2,1.7824857E2,2.1900947E3,7.779382E1,9.30073E1,8.446319E2,1.06562355E2,7.168621E1,6.752416E2,1.5148531E3,6.2498005E1,1.5295815E1,2.7581467E1,6.5425835E1,7.41032E2,1.0359991E2,1.6728283E1,8.9834076E1,5.830265E1,1.3383557E1,3.2421704E2,3.5102457E2,1.7626576E2,1.3385873E3,5.6137043E1,6.3609624E0,5.928643E0,9.367172E0],"tree_param":{"num_deleted":"0","num_feature":"7","num_nodes":"31","size_leaf_vector":"1"}},{"base_weights":[-1.287665E-4,4.6949223E-1,-2.5015962E-1,-1.9610468E-1,6.037187E-1,1.1548463E-1,-3.413763E-1,5.809521E-1,-2.954759E-1,6.736661E-1,-2.8477523E-1,-2.2460526E-1,8.160248E-1,-4.2091122E-1,-5.737795E-2,-2.5692651E-2,1.5183999E-1,-4.8834957E-2,-9.449143E-3,3.675217E-2,9.099197E-2,1.1826624E-1,-5.4086965E-2,-4.290114E-2,7.939772E-2,1.0143032E-1,-1.6206762E-2,-3.1734053E-2,-5.5589866E-2,-4.06312E-2,7.086965E-2],"categories":[],"categories_nodes":[],"categories_segments":[],"categories_sizes":[],"default_left":[0,0,0,0,0,0,0,0,0,0,0,0,0,0,0,0,0,0,0,0,0,0,0,0,0,0,0,0,0,0,0],"id":18,"left_children":[1,3,5,7,9,11,13,15,17,19,21,23,25,27,29,-1,-1,-1,-1,-1,-1,-1,-1,-1,-1,-1,-1,-1,-1,-1,-1],"loss_changes":[3.97937E2,1.0531311E2,7.380118E1,1.5488092E1,6.1102936E1,1.0556119E2,3.996193E1,1.8320063E1,6.796914E0,6.540198E1,2.7784237E1,6.2497887E1,2.8239632E1,1.9156052E1,1.04126686E2,0E0,0E0,0E0,0E0,0E0,0E0,0E0,0E0,0E0,0E0,0E0,0E0,0E0,0E0,0E0,0E0],"parents":[2147483647,0,0,1,1,2,2,3,3,4,4,5,5,6,6,7,7,8,8,9,9,10,10,11,11,12,12,13,13,14,14],"right_children":[2,4,6,8,10,12,14,16,18,20,22,24,26,28,30,-1,-1,-1,-1,-1,-1,-1,-1,-1,-1,-1,-1,-1,-1,-1,-1],"split_conditions":[2.854032E-1,-3.750916E-1,-4.7583437E-1,-7.3407733E-1,1.6656284E0,3.6894688E-1,1.9383073E0,-4.9573663E-1,-1.3757238E0,1.6746722E-2,-9.900077E-1,-1.0512272E0,1.1920707E0,6.828837E-1,2.8552657E-1,-2.5692651E-2,1.5183999E-1,-4.8834957E-2,-9.449143E-3,3.675217E-2,9.099197E-2,1.1826624E-1,-5.4086965E-2,-4.290114E-2,7.939772E-2,1.0143032E-1,-1.6206762E-2,-3.1734053E-2,-5.5589866E-2,-4.06312E-2,7.086965E-2],"split_indices":[3,6,4,4,6,5,4,3,6,5,4,4,6,1,5,0,0,0,0,0,0,0,0,0,0,0,0,0,0,0,0],"split_type":[0,0,0,0,0,0,0,0,0,0,0,0,0,0,0,0,0,0,0,0,0,0,0,0,0,0,0,0,0,0,0],"sum_hessian":[3.387013E3,1.1764553E3,2.2105576E3,1.9735553E2,9.790998E2,4.41306E2,1.7692516E3,2.18271E1,1.7552844E2,9.078689E2,7.123094E1,2.9753946E2,1.4376654E2,1.3817927E3,3.874589E2,1.19089575E1,9.918142E0,8.884195E1,8.6686485E1,3.9655566E2,5.113132E2,1.00463915E1,6.118455E1,2.482918E2,4.9247654E1,1.1950377E2,2.4262768E1,7.8377966E2,5.9801306E2,2.6652902E2,1.2092989E2],"tree_param":{"num_deleted":"0","num_feature":"7","num_nodes":"31","size_leaf_vector":"1"}},{"base_weights":[-6.2926806E-4,8.728771E-1,-1.7096487E-1,-5.5286694E-1,1.1288698E0,-5.697979E-1,-3.695577E-2,-5.9181005E-2,-2.2591792E-1,1.2921116E0,8.103841E-1,-5.8367336E-1,-3.1619585E-1,1.0480808E-1,-5.361831E-1,-5.3613912E-2,6.0274985E-2,-5.4328978E-2,1.3256165E-1,1.2035209E-1,5.305312E-2,-5.887231E-2,-6.166193E-3,8.345618E-2,-3.960875E-2,-1.5756555E-2,2.2948882E-2,-3.293776E-2,-5.7653494E-2],"categories":[],"categories_nodes":[],"categories_segments":[],"categories_sizes":[],"default_left":[0,0,0,0,0,0,0,0,0,0,0,0,0,0,0,0,0,0,0,0,0,0,0,0,0,0,0,0,0],"id":19,"left_children":[1,3,5,7,9,11,13,-1,15,17,19,21,23,25,27,-1,-1,-1,-1,-1,-1,-1,-1,-1,-1,-1,-1,-1,-1],"loss_changes":[5.040351E2,2.0238138E2,1.5149042E2,9.462185E-1,2.33349E1,2.3239594E0,1.502996E2,0E0,3.059606E0,1.968341E1,1.7141045E1,1.7422333E0,3.9310315E0,5.4151085E1,3.7295074E0,0E0,0E0,0E0,0E0,0E0,0E0,0E0,0E0,0E0,0E0,0E0,0E0,0E0,0E0],"parents":[2147483647,0,0,1,1,2,2,3,3,4,4,5,5,6,6,8,8,9,9,10,10,11,11,12,12,13,13,14,14],"right_children":[2,4,6,8,10,12,14,-1,16,18,20,22,24,26,28,-1,-1,-1,-1,-1,-1,-1,-1,-1,-1,-1,-1,-1,-1],"split_conditions":[-1.2139082E0,7.732138E-2,1.0313329E-1,1.404678E-1,6.0912555E-1,1.6821754E0,6.0941947E-1,-5.9181005E-2,2.5757251E-2,2.0731183E-2,6.04434E-1,8.0525255E-1,-1.0880876E0,-3.153851E-1,6.346759E-1,-5.3613912E-2,6.0274985E-2,-5.4328978E-2,1.3256165E-1,1.2035209E-1,5.305312E-2,-5.887231E-2,-6.166193E-3,8.345618E-2,-3.960875E-2,-1.5756555E-2,2.2948882E-2,-3.293776E-2,-5.7653494E-2],"split_indices":[5,2,2,3,0,5,5,0,0,3,1,3,4,6,6,0,0,0,0,0,0,0,0,0,0,0,0,0,0],"split_type":[0,0,0,0,0,0,0,0,0,0,0,0,0,0,0,0,0,0,0,0,0,0,0,0,0,0,0,0,0],"sum_hessian":[3.385575E3,5.5178986E2,2.8337852E3,8.381649E1,4.6797336E2,7.118754E2,2.12191E3,7.4171745E1,9.644747E0,3.073712E2,1.6060217E2,6.737126E2,3.8162834E1,1.6532362E3,4.686736E2,7.2744756E0,2.3702717E0,5.237635E0,3.0213354E2,6.541158E1,9.519059E1,6.671313E2,6.581269E0,1.8642364E0,3.6298595E1,5.324674E2,1.1207688E3,7.8013245E1,3.9066037E2],"tree_param":{"num_deleted":"0","num_feature":"7","num_nodes":"29","size_leaf_vector":"1"}},{"base_weights":[1.8296452E-3,-4.1844195E-1,2.1066605E-1,5.610401E-1,-4.4432238E-1,-1.7241806E-1,2.934053E-1,-1.4503893E-1,9.437734E-1,-1.7175415E-1,-4.859487E-1,-4.080216E-1,2.8728536E-1,1.5365008E-1,4.997862E-1,-4.2299654E-2,1.0543672E-1,-4.1812588E-2,1.1485475E-1,1.6787697E-1,-2.3956655E-2,-5.4189064E-2,-2.7744612E-2,-5.3501405E-2,-1.1564786E-2,-1.656385E-3,8.6070344E-2,3.762723E-2,-9.113199E-3,-5.1953085E-2,5.4749817E-2],"categories":[],"categories_nodes":[],"categories_segments":[],"categories_sizes":[],"default_left":[0,0,0,0,0,0,0,0,0,0,0,0,0,0,0,0,0,0,0,0,0,0,0,0,0,0,0,0,0,0,0],"id":20,"left_children":[1,3,5,7,9,11,13,15,17,19,21,23,25,27,29,-1,-1,-1,-1,-1,-1,-1,-1,-1,-1,-1,-1,-1,-1,-1,-1],"loss_changes":[2.9698825E2,2.8723541E1,7.169998E1,8.07049E0,1.2339447E1,4.367215E1,5.355269E1,4.1753693E0,5.8267384E0,1.8799685E1,1.0922409E1,9.825237E0,2.3858238E1,6.052688E1,3.6773834E1,0E0,0E0,0E0,0E0,0E0,0E0,0E0,0E0,0E0,0E0,0E0,0E0,0E0,0E0,0E0,0E0],"parents":[2147483647,0,0,1,1,2,2,3,3,4,4,5,5,6,6,7,7,8,8,9,9,10,10,11,11,12,12,13,13,14,14],"right_children":[2,4,6,8,10,12,14,16,18,20,22,24,26,28,30,-1,-1,-1,-1,-1,-1,-1,-1,-1,-1,-1,-1,-1,-1,-1,-1],"split_conditions":[4.131821E-1,-2.4095852E0,4.2084968E-1,4.476112E-2,-6.6941655E-1,6.898247E-1,-2.4922127E-1,5.481364E-1,-1.4692467E0,-2.447924E0,4.9361268E-1,-1.6659991E-1,8.3231765E-1,1.2683661E-1,-1.3876129E0,-4.2299654E-2,1.0543672E-1,-4.1812588E-2,1.1485475E-1,1.6787697E-1,-2.3956655E-2,-5.4189064E-2,-2.7744612E-2,-5.3501405E-2,-1.1564786E-2,-1.656385E-3,8.6070344E-2,3.762723E-2,-9.113199E-3,-5.1953085E-2,5.4749817E-2],"split_indices":[3,6,0,4,6,1,4,1,1,0,0,6,5,6,5,0,0,0,0,0,0,0,0,0,0,0,0,0,0,0,0],"split_type":[0,0,0,0,0,0,0,0,0,0,0,0,0,0,0,0,0,0,0,0,0,0,0,0,0,0,0,0,0,0,0],"sum_hessian":[3.3817827E3,1.1222711E3,2.2595117E3,2.8357634E1,1.0939135E3,4.0114047E2,1.8583711E3,1.0186424E1,1.8171207E1,1.4560721E2,9.483063E2,2.6528906E2,1.3585141E2,1.1090792E3,7.49292E2,8.795444E0,1.3909808E0,2.2389114E0,1.5932297E1,4.307386E0,1.4129982E2,7.464361E2,2.0187018E2,1.8437566E2,8.09134E1,8.9432846E1,4.6418564E1,5.805492E2,5.2852997E2,3.3062233E1,7.1622974E2],"tree_param":{"num_deleted":"0","num_feature":"7","num_nodes":"31","size_leaf_vector":"1"}},{"base_weights":[1.4846799E-3,-3.5297972E-1,2.1242128E-1,-4.6600145E-1,6.023055E-2,-3.8597584E-1,2.5852895E-1,-5.504831E-1,-1.5801762E-1,-1.5829882E-1,4.4499823E-1,9.311587E-1,-4.274989E-1,5.405148E-1,1.5836401E-1,-5.650855E-2,-4.4276156E-2,7.9100646E-2,-5.304577E-2,-2.608045E-2,4.5657367E-2,5.4221954E-3,8.4901445E-2,7.435424E-3,1.23972155E-1,1.8597575E-2,-4.8062533E-2,6.533586E-2,-3.4572735E-2,-3.6322065E-2,2.2930957E-2],"categories":[],"categories_nodes":[],"categories_segments":[],"categories_sizes":[],"default_left":[0,0,0,0,0,0,0,0,0,0,0,0,0,0,0,0,0,0,0,0,0,0,0,0,0,0,0,0,0,0,0],"id":21,"left_children":[1,3,5,7,9,11,13,15,17,19,21,23,25,27,29,-1,-1,-1,-1,-1,-1,-1,-1,-1,-1,-1,-1,-1,-1,-1,-1],"loss_changes":[2.5280783E2,5.8938873E1,5.858468E1,2.5687866E1,2.2924965E1,8.713697E0,5.552014E1,9.7198486E-1,7.6285706E1,1.10916395E1,1.5539627E1,1.2195215E0,4.915716E0,5.178894E1,5.389066E1,0E0,0E0,0E0,0E0,0E0,0E0,0E0,0E0,0E0,0E0,0E0,0E0,0E0,0E0,0E0,0E0],"parents":[2147483647,0,0,1,1,2,2,3,3,4,4,5,5,6,6,7,7,8,8,9,9,10,10,11,11,12,12,13,13,14,14],"right_children":[2,4,6,8,10,12,14,16,18,20,22,24,26,28,30,-1,-1,-1,-1,-1,-1,-1,-1,-1,-1,-1,-1,-1,-1,-1,-1],"split_conditions":[4.379362E-1,5.223783E-1,-1.2627932E0,5.434388E-1,5.0350684E-1,-2.4613333E0,-2.6122645E-1,3.4174955E-1,1.6636822E0,2.1336524E0,4.729551E-1,-2.515064E0,1.8187514E-1,7.286362E-1,-4.1359547E-1,-5.650855E-2,-4.4276156E-2,7.9100646E-2,-5.304577E-2,-2.608045E-2,4.5657367E-2,5.4221954E-3,8.4901445E-2,7.435424E-3,1.23972155E-1,1.8597575E-2,-4.8062533E-2,6.533586E-2,-3.4572735E-2,-3.6322065E-2,2.2930957E-2],"split_indices":[0,1,5,4,6,2,5,1,4,4,2,6,1,3,4,0,0,0,0,0,0,0,0,0,0,0,0,0,0,0,0],"split_type":[0,0,0,0,0,0,0,0,0,0,0,0,0,0,0,0,0,0,0,0,0,0,0,0,0,0,0,0,0,0,0],"sum_hessian":[3.379159E3,1.2604261E3,2.1187327E3,9.8961725E2,2.7080893E2,1.5104611E2,1.9676865E3,7.759755E2,2.1364177E2,1.7309052E2,9.771842E1,3.9614573E0,1.4708466E2,5.1459485E2,1.4530917E3,6.7960486E2,9.637061E1,5.989583E1,1.5374594E2,1.4885129E2,2.4239227E1,5.0249676E1,4.7468746E1,1.3774844E0,2.5839727E0,1.152298E1,1.3556168E2,4.5670596E2,5.788886E1,1.7349008E2,1.2796017E3],"tree_param":{"num_deleted":"0","num_feature":"7","num_nodes":"31","size_leaf_vector":"1"}},{"base_weights":[-2.270888E-3,5.899447E-1,-3.123887E-1,7.0098495E-1,-1.7639237E-2,-3.5887036E-1,8.964415E-1,-1.2415088E-1,7.8636473E-1,2.533487E-1,-4.9831313E-1,-1.3834545E-1,-4.5959708E-1,1.0659839E0,1.4527485E-1,7.460041E-2,-5.2878726E-2,7.181158E-2,1.2577318E-1,6.2582664E-2,-1.3019191E-2,-5.4920334E-2,1.9747762E-2,1.4382136E-2,-4.1369822E-2,-1.2890673E-2,-5.099258E-2,1.2024146E-1,-2.0117844E-2,1.10474244E-1,-5.589367E-2],"categories":[],"categories_nodes":[],"categories_segments":[],"categories_sizes":[],"default_left":[0,0,0,0,0,0,0,0,0,0,0,0,0,0,0,0,0,0,0,0,0,0,0,0,0,0,0,0,0,0,0],"id":22,"left_children":[1,3,5,7,9,11,13,15,17,19,21,23,25,27,29,-1,-1,-1,-1,-1,-1,-1,-1,-1,-1,-1,-1,-1,-1,-1,-1],"loss_changes":[6.169778E2,7.790741E1,1.2420764E2,6.887079E1,2.349149E1,4.7114136E1,1.02788315E1,3.292911E1,2.7560974E1,1.6563574E1,2.4102554E0,5.191099E1,2.4192291E1,1.1769928E1,1.1593006E1,0E0,0E0,0E0,0E0,0E0,0E0,0E0,0E0,0E0,0E0,0E0,0E0,0E0,0E0,0E0,0E0],"parents":[2147483647,0,0,1,1,2,2,3,3,4,4,5,5,6,6,7,7,8,8,9,9,10,10,11,11,12,12,13,13,14,14],"right_children":[2,4,6,8,10,12,14,16,18,20,22,24,26,28,30,-1,-1,-1,-1,-1,-1,-1,-1,-1,-1,-1,-1,-1,-1,-1,-1],"split_conditions":[1.5938458E-1,5.434388E-1,1.7987915E0,-9.900077E-1,-4.3290016E-1,4.7835454E-1,5.7913226E-1,-6.5520227E-1,1.1920707E0,-1.01569116E-1,1.9121842E0,5.216756E-1,3.2239917E-1,7.921005E-1,-3.3317086E-1,7.460041E-2,-5.2878726E-2,7.181158E-2,1.2577318E-1,6.2582664E-2,-1.3019191E-2,-5.4920334E-2,1.9747762E-2,1.4382136E-2,-4.1369822E-2,-1.2890673E-2,-5.099258E-2,1.2024146E-1,-2.0117844E-2,1.10474244E-1,-5.589367E-2],"split_indices":[2,4,6,4,1,3,3,3,6,5,5,2,1,2,4,0,0,0,0,0,0,0,0,0,0,0,0,0,0,0,0],"split_type":[0,0,0,0,0,0,0,0,0,0,0,0,0,0,0,0,0,0,0,0,0,0,0,0,0,0,0,0,0,0,0],"sum_hessian":[3.3574065E3,1.1535776E3,2.2038289E3,9.751994E2,1.7837825E2,2.1229026E3,8.092628E1,9.140266E1,8.8379675E2,1.1437203E2,6.400622E1,6.6636884E2,1.4565337E3,6.568232E1,1.5243957E1,2.8744678E1,6.2657974E1,7.742212E2,1.0957552E2,5.770233E1,5.66697E1,5.984018E1,4.166037E0,3.293481E2,3.3702072E2,1.9286348E2,1.2636702E3,5.934406E1,6.3382626E0,6.211798E0,9.032158E0],"tree_param":{"num_deleted":"0","num_feature":"7","num_nodes":"31","size_leaf_vector":"1"}},{"base_weights":[4.429511E-5,4.3018582E-1,-2.4002898E-1,-1.8875328E-1,5.49452E-1,1.0666159E-1,-3.318779E-1,5.352796E-1,-2.8599247E-1,6.098761E-1,-2.7467272E-1,-5.496587E-1,4.036129E-1,-4.127368E-1,-5.149858E-2,-2.4966583E-2,1.3403703E-1,-4.77623E-2,-9.287343E-3,3.3654697E-2,8.161323E-2,1.06627345E-1,-5.308196E-2,-5.8889337E-2,8.0067397E-4,1.0753458E-3,1.0000589E-1,-3.1008545E-2,-5.472861E-2,-3.9429072E-2,6.515862E-2],"categories":[],"categories_nodes":[],"categories_segments":[],"categories_sizes":[],"default_left":[0,0,0,0,0,0,0,0,0,0,0,0,0,0,0,0,0,0,0,0,0,0,0,0,0,0,0,0,0,0,0],"id":23,"left_children":[1,3,5,7,9,11,13,15,17,19,21,23,25,27,29,-1,-1,-1,-1,-1,-1,-1,-1,-1,-1,-1,-1,-1,-1,-1,-1],"loss_changes":[3.476676E2,8.912712E1,6.884079E1,1.3923101E1,5.05318E1,8.8570206E1,3.8711258E1,1.5189057E1,6.3608665E0,5.2865906E1,2.45334E1,3.10363E0,7.325592E1,1.8143036E1,9.2699036E1,0E0,0E0,0E0,0E0,0E0,0E0,0E0,0E0,0E0,0E0,0E0,0E0,0E0,0E0,0E0,0E0],"parents":[2147483647,0,0,1,1,2,2,3,3,4,4,5,5,6,6,7,7,8,8,9,9,10,10,11,11,12,12,13,13,14,14],"right_children":[2,4,6,8,10,12,14,16,18,20,22,24,26,28,30,-1,-1,-1,-1,-1,-1,-1,-1,-1,-1,-1,-1,-1,-1,-1,-1],"split_conditions":[2.854032E-1,-3.750916E-1,-3.8308057E-1,-7.3407733E-1,1.6656284E0,-1.037804E0,1.9383073E0,-4.9573663E-1,-1.3757238E0,1.6746722E-2,-9.900077E-1,-1.0062704E0,-1.0709419E0,6.828837E-1,2.8552657E-1,-2.4966583E-2,1.3403703E-1,-4.77623E-2,-9.287343E-3,3.3654697E-2,8.161323E-2,1.06627345E-1,-5.308196E-2,-5.8889337E-2,8.0067397E-4,1.0753458E-3,1.0000589E-1,-3.1008545E-2,-5.472861E-2,-3.9429072E-2,6.515862E-2],"split_indices":[3,6,4,4,6,6,4,3,6,5,4,5,4,1,5,0,0,0,0,0,0,0,0,0,0,0,0,0,0,0,0],"split_type":[0,0,0,0,0,0,0,0,0,0,0,0,0,0,0,0,0,0,0,0,0,0,0,0,0,0,0,0,0,0,0],"sum_hessian":[3.3647358E3,1.2049764E3,2.1597595E3,1.9458469E2,1.0103917E3,4.523122E2,1.7074473E3,2.2505594E1,1.7207909E2,9.416134E2,6.877833E1,1.4063358E2,3.1167862E2,1.3248889E3,3.825583E2,1.1744683E1,1.0760911E1,8.563295E1,8.6446144E1,4.0609326E2,5.3552014E2,1.0523638E1,5.8254692E1,1.3133733E2,9.29625E0,1.8852281E2,1.2315579E2,7.534022E2,5.714867E2,2.5746786E2,1.25090416E2],"tree_param":{"num_deleted":"0","num_feature":"7","num_nodes":"31","size_leaf_vector":"1"}},{"base_weights":[-1.1093656E-3,7.98821E-1,-1.6051155E-1,-5.456997E-1,1.0250715E0,-5.4142624E-1,-2.576697E-2,-5.5930924E-1,2.7184939E-2,1.1610886E0,7.012531E-1,1.1510763E-1,-5.477488E-1,1.0602399E-1,-5.4610354E-1,-5.736512E-2,2.1164348E-2,4.0882584E-2,1.2275453E-1,1.3282476E-1,5.317996E-2,-5.7479102E-2,-3.21713E-2,2.45821E-2,-8.518005E-3,-4.398814E-2,-5.8612324E-2],"categories":[],"categories_nodes":[],"categories_segments":[],"categories_sizes":[],"default_left":[0,0,0,0,0,0,0,0,0,0,0,0,0,0,0,0,0,0,0,0,0,0,0,0,0,0,0],"id":24,"left_children":[1,3,5,7,9,11,13,15,-1,17,19,-1,21,23,25,-1,-1,-1,-1,-1,-1,-1,-1,-1,-1,-1,-1],"loss_changes":[4.2888843E2,1.705716E2,1.439385E2,1.0549984E0,2.0271484E1,8.472427E0,1.4220398E2,1.0076408E0,0E0,1.6275787E1,1.4607132E1,0E0,4.2819366E0,4.4252422E1,1.5236359E0,0E0,0E0,0E0,0E0,0E0,0E0,0E0,0E0,0E0,0E0,0E0,0E0],"parents":[2147483647,0,0,1,1,2,2,3,3,4,4,5,5,6,6,7,7,9,9,10,10,12,12,13,13,14,14],"right_children":[2,4,6,8,10,12,14,16,-1,18,20,-1,22,24,26,-1,-1,-1,-1,-1,-1,-1,-1,-1,-1,-1,-1],"split_conditions":[-1.2283976E0,7.732138E-2,1.2465928E-1,2.0802984E0,6.1920774E-1,-1.1149755E0,6.666483E-1,-1.2423286E0,2.7184939E-2,-1.0854784E-1,4.5012972E-1,1.1510763E-1,5.862093E-1,5.4633874E-1,4.3877324E-1,-5.736512E-2,2.1164348E-2,4.0882584E-2,1.2275453E-1,1.3282476E-1,5.317996E-2,-5.7479102E-2,-3.21713E-2,2.45821E-2,-8.518005E-3,-4.398814E-2,-5.8612324E-2],"split_indices":[5,2,0,4,1,4,5,5,0,1,3,0,3,2,2,0,0,0,0,0,0,0,0,0,0,0,0],"split_type":[0,0,0,0,0,0,0,0,0,0,0,0,0,0,0,0,0,0,0,0,0,0,0,0,0,0,0],"sum_hessian":[3.3615447E3,5.578859E2,2.8036587E3,8.0153305E1,4.7773264E2,7.3182263E2,2.071836E3,7.915156E1,1.0017451E0,3.3460077E2,1.4313187E2,2.0497947E0,7.297728E2,1.653766E3,4.1806998E2,7.7957245E1,1.1943132E0,2.774055E1,3.0686023E2,2.8998003E1,1.1413386E2,6.504162E2,7.935662E1,9.5513934E2,6.986267E2,1.1768814E2,3.0038184E2],"tree_param":{"num_deleted":"0","num_feature":"7","num_nodes":"27","size_leaf_vector":"1"}},{"base_weights":[2.3358131E-3,-4.0686637E-1,1.9549859E-1,-4.2715337E-2,-4.754498E-1,-5.005113E-1,2.3523256E-1,9.6503353E-1,-1.8955384E-1,-5.330069E-1,-2.6645377E-1,7.583949E-1,-5.3540707E-1,-1.2854412E-1,2.9058197E-1,1.2931174E-1,6.674325E-2,-3.1492833E-2,4.527088E-2,-5.6924444E-2,-3.823684E-2,-1.2370296E-3,-4.2077415E-2,1.0664079E-2,1.11362614E-1,6.481029E-3,-5.4413535E-2,-3.6831554E-2,1.6092665E-2,3.574277E-4,3.617361E-2],"categories":[],"categories_nodes":[],"categories_segments":[],"categories_sizes":[],"default_left":[0,0,0,0,0,0,0,0,0,0,0,0,0,0,0,0,0,0,0,0,0,0,0,0,0,0,0,0,0,0,0],"id":25,"left_children":[1,3,5,7,9,11,13,15,17,19,21,23,25,27,29,-1,-1,-1,-1,-1,-1,-1,-1,-1,-1,-1,-1,-1,-1,-1,-1],"loss_changes":[2.6623083E2,2.6954727E1,6.3395485E1,2.5676447E1,1.0790268E1,5.8485336E0,4.3633377E1,1.2922516E0,1.2318222E1,3.6666412E0,7.7678566E0,7.5067854E-1,6.6986847E-1,1.9953226E1,3.8382965E1,0E0,0E0,0E0,0E0,0E0,0E0,0E0,0E0,0E0,0E0,0E0,0E0,0E0,0E0,0E0,0E0],"parents":[2147483647,0,0,1,1,2,2,3,3,4,4,5,5,6,6,7,7,8,8,9,9,10,10,11,11,12,12,13,13,14,14],"right_children":[2,4,6,8,10,12,14,16,18,20,22,24,26,28,30,-1,-1,-1,-1,-1,-1,-1,-1,-1,-1,-1,-1,-1,-1,-1,-1],"split_conditions":[4.131821E-1,-6.6941655E-1,-1.4527427E0,-2.6554275E0,4.9361268E-1,-8.504286E-1,3.85646E-1,-2.3678086E0,-1.03555E0,-1.07383706E-1,4.8987985E-1,7.05912E-1,4.3696815E-1,6.8912053E-1,4.9249455E-1,1.2931174E-1,6.674325E-2,-3.1492833E-2,4.527088E-2,-5.6924444E-2,-3.823684E-2,-1.2370296E-3,-4.2077415E-2,1.0664079E-2,1.11362614E-1,6.481029E-3,-5.4413535E-2,-3.6831554E-2,1.6092665E-2,3.574277E-4,3.617361E-2],"split_indices":[3,6,5,3,0,0,2,5,5,4,1,3,3,3,3,0,0,0,0,0,0,0,0,0,0,0,0,0,0,0,0],"split_type":[0,0,0,0,0,0,0,0,0,0,0,0,0,0,0,0,0,0,0,0,0,0,0,0,0,0,0,0,0,0,0],"sum_hessian":[3.3661865E3,1.0790936E3,2.2870928E3,1.7128107E2,9.0781256E2,1.2288857E2,2.1642043E3,2.1074594E1,1.5020647E2,7.10572E2,1.9724055E2,2.7552853E0,1.2013329E2,2.8562827E2,1.878576E3,8.432848E0,1.26417465E1,1.2610039E2,2.4106087E1,5.7054346E2,1.400286E2,7.49379E1,1.2230266E2,1.4306419E0,1.3246433E0,1.6298163E0,1.1850347E2,1.5607635E2,1.2955191E2,3.7341522E2,1.5051608E3],"tree_param":{"num_deleted":"0","num_feature":"7","num_nodes":"31","size_leaf_vector":"1"}},{"base_weights":[1.8888151E-3,-3.8921118E-1,1.7536059E-1,-4.359478E-1,4.543176E-1,-3.8004535E-1,2.2205028E-1,-5.207339E-1,-1.498489E-1,-2.259549E-3,7.652219E-1,9.8312986E-1,-4.2867717E-1,-2.4653268E-1,2.7118036E-1,-5.5217445E-2,-2.5026554E-2,7.261645E-2,-5.028779E-2,9.30218E-2,-3.7648242E-2,1.2656844E-1,1.3147186E-2,7.5903074E-3,1.20948136E-1,-2.4300684E-4,-4.650436E-2,-4.4776827E-2,1.1958528E-2,5.09258E-2,1.8366294E-2],"categories":[],"categories_nodes":[],"categories_segments":[],"categories_sizes":[],"default_left":[0,0,0,0,0,0,0,0,0,0,0,0,0,0,0,0,0,0,0,0,0,0,0,0,0,0,0,0,0,0,0],"id":26,"left_children":[1,3,5,7,9,11,13,15,17,19,21,23,25,27,29,-1,-1,-1,-1,-1,-1,-1,-1,-1,-1,-1,-1,-1,-1,-1,-1],"loss_changes":[2.2822668E2,4.0947098E1,6.0513817E1,2.3690796E1,7.7738667E0,1.2425562E1,4.9568962E1,6.28598E0,7.007386E1,8.437891E0,1.0165367E1,1.2514114E0,2.7198372E0,1.5126112E1,4.0467255E1,0E0,0E0,0E0,0E0,0E0,0E0,0E0,0E0,0E0,0E0,0E0,0E0,0E0,0E0,0E0,0E0],"parents":[2147483647,0,0,1,1,2,2,3,3,4,4,5,5,6,6,7,7,8,8,9,9,10,10,11,11,12,12,13,13,14,14],"right_children":[2,4,6,8,10,12,14,16,18,20,22,24,26,28,30,-1,-1,-1,-1,-1,-1,-1,-1,-1,-1,-1,-1,-1,-1,-1,-1],"split_conditions":[3.48323E-1,7.5929534E-1,-1.2627932E0,5.434388E-1,-3.011294E-1,-2.4613333E0,3.560136E-1,5.2982765E-1,1.6636822E0,-3.5361174E-1,2.9340762E-1,-2.515064E0,9.95306E-2,-2.3549321E-1,-2.833276E-1,-5.5217445E-2,-2.5026554E-2,7.261645E-2,-5.028779E-2,9.30218E-2,-3.7648242E-2,1.2656844E-1,1.3147186E-2,7.5903074E-3,1.20948136E-1,-2.4300684E-4,-4.650436E-2,-4.4776827E-2,1.1958528E-2,5.09258E-2,1.8366294E-2],"split_indices":[0,1,5,4,4,2,2,1,4,4,0,6,1,4,5,0,0,0,0,0,0,0,0,0,0,0,0,0,0,0,0],"split_type":[0,0,0,0,0,0,0,0,0,0,0,0,0,0,0,0,0,0,0,0,0,0,0,0,0,0,0,0,0,0,0],"sum_hessian":[3.3619458E3,1.032618E3,2.329328E3,9.788661E2,5.3751953E1,1.800748E2,2.1492532E3,7.5445996E2,2.2440614E2,2.2176899E1,3.1575052E1,5.5410323E0,1.7453377E2,2.0357915E2,1.945674E3,6.7495807E2,7.950188E1,6.415462E1,1.6025153E2,5.9256945E0,1.6251205E1,1.708565E1,1.4489404E1,1.3730643E0,4.1679683E0,1.3804108E1,1.6072966E2,1.312274E2,7.2351746E1,5.216869E2,1.423987E3],"tree_param":{"num_deleted":"0","num_feature":"7","num_nodes":"31","size_leaf_vector":"1"}},{"base_weights":[-2.830113E-3,5.3735757E-1,-3.0146474E-1,6.3603675E-1,-2.037747E-2,-3.47325E-1,8.21561E-1,-1.1889516E-1,7.1011114E-1,2.4731319E-1,-4.5981273E-1,-1.3038626E-1,-4.4897333E-1,1.1415929E0,4.8156512E-1,6.8215676E-2,-5.205465E-2,3.8714286E-2,7.95809E-2,-5.8207303E-2,3.9263945E-2,-5.5122565E-2,-7.0236223E-3,1.3999603E-2,-4.032847E-2,-1.1987815E-2,-5.0050348E-2,-1.5041205E-3,1.2891798E-1,-3.4245353E-2,1.0954385E-1],"categories":[],"categories_nodes":[],"categories_segments":[],"categories_sizes":[],"default_left":[0,0,0,0,0,0,0,0,0,0,0,0,0,0,0,0,0,0,0,0,0,0,0,0,0,0,0,0,0,0,0],"id":27,"left_children":[1,3,5,7,9,11,13,15,17,19,21,23,25,27,29,-1,-1,-1,-1,-1,-1,-1,-1,-1,-1,-1,-1,-1,-1,-1,-1],"loss_changes":[5.367897E2,6.521237E1,1.106472E2,5.6374176E1,2.1176826E1,4.5356125E1,8.630531E0,2.9569038E1,2.506665E1,1.3718918E1,2.3877077E0,4.864573E1,2.371518E1,7.313835E0,2.194366E1,0E0,0E0,0E0,0E0,0E0,0E0,0E0,0E0,0E0,0E0,0E0,0E0,0E0,0E0,0E0,0E0],"parents":[2147483647,0,0,1,1,2,2,3,3,4,4,5,5,6,6,7,7,8,8,9,9,10,10,11,11,12,12,13,13,14,14],"right_children":[2,4,6,8,10,12,14,16,18,20,22,24,26,28,30,-1,-1,-1,-1,-1,-1,-1,-1,-1,-1,-1,-1,-1,-1,-1,-1],"split_conditions":[1.5938458E-1,5.434388E-1,1.7987915E0,-9.900077E-1,-5.7358384E-1,4.7835454E-1,-3.239026E-1,-6.5520227E-1,-2.3149266E0,1.4660087E0,-7.4807465E-2,5.216756E-1,3.2239917E-1,3.7947616E-1,-2.0189087E-1,6.8215676E-2,-5.205465E-2,3.8714286E-2,7.95809E-2,-5.8207303E-2,3.9263945E-2,-5.5122565E-2,-7.0236223E-3,1.3999603E-2,-4.032847E-2,-1.1987815E-2,-5.0050348E-2,-1.5041205E-3,1.2891798E-1,-3.4245353E-2,1.0954385E-1],"split_indices":[2,4,6,4,1,3,4,3,0,4,2,2,1,2,4,0,0,0,0,0,0,0,0,0,0,0,0,0,0,0,0],"split_type":[0,0,0,0,0,0,0,0,0,0,0,0,0,0,0,0,0,0,0,0,0,0,0,0,0,0,0,0,0,0,0],"sum_hessian":[3.3255056E3,1.1836504E3,2.1418552E3,1.0055922E3,1.7805824E2,2.0584849E3,8.3370255E1,8.979885E1,9.1579333E2,1.1092394E2,6.713431E1,6.575082E2,1.4009767E3,4.1731495E1,4.163876E1,2.975574E1,6.0043114E1,1.9320015E2,7.225932E2,1.60903E1,9.483364E1,5.4039227E1,1.30950775E1,3.305213E2,3.2698688E2,1.9011862E2,1.2108582E3,4.8240037E0,3.690749E1,1.796543E1,2.3673332E1],"tree_param":{"num_deleted":"0","num_feature":"7","num_nodes":"31","size_leaf_vector":"1"}},{"base_weights":[-4.9060094E-5,3.9610237E-1,-2.3053168E-1,-1.7992969E-1,5.023792E-1,1.0732202E-1,-3.1935686E-1,4.9741066E-1,-2.7510712E-1,5.5505997E-1,-2.6604602E-1,-2.1058874E-1,7.084516E-1,-3.992205E-1,-4.4398755E-2,-2.4156569E-2,1.2016914E-1,-4.65991E-2,-8.943772E-3,3.0952407E-2,7.372027E-2,9.610814E-2,-5.209456E-2,3.9108377E-2,-5.4649066E-2,8.711675E-2,-1.5705192E-2,-2.9536454E-2,-5.3976625E-2,-3.8134426E-2,6.022796E-2],"categories":[],"categories_nodes":[],"categories_segments":[],"categories_sizes":[],"default_left":[0,0,0,0,0,0,0,0,0,0,0,0,0,0,0,0,0,0,0,0,0,0,0,0,0,0,0,0,0,0,0],"id":28,"left_children":[1,3,5,7,9,11,13,15,17,19,21,23,25,27,29,-1,-1,-1,-1,-1,-1,-1,-1,-1,-1,-1,-1,-1,-1,-1,-1],"loss_changes":[3.0514148E2,7.534122E1,6.343786E1,1.2527414E1,4.2167664E1,8.4346016E1,3.672383E1,1.2799644E1,5.9536753E0,4.323044E1,2.1543308E1,5.8610474E1,2.1632149E1,1.8764252E1,8.2534325E1,0E0,0E0,0E0,0E0,0E0,0E0,0E0,0E0,0E0,0E0,0E0,0E0,0E0,0E0,0E0,0E0],"parents":[2147483647,0,0,1,1,2,2,3,3,4,4,5,5,6,6,7,7,8,8,9,9,10,10,11,11,12,12,13,13,14,14],"right_children":[2,4,6,8,10,12,14,16,18,20,22,24,26,28,30,-1,-1,-1,-1,-1,-1,-1,-1,-1,-1,-1,-1,-1,-1,-1,-1],"split_conditions":[2.854032E-1,-3.750916E-1,-4.7583437E-1,-7.3407733E-1,1.6656284E0,3.6894688E-1,1.9383073E0,-4.9573663E-1,-1.3757238E0,1.6746722E-2,-9.900077E-1,5.5663985E-1,1.1920707E0,6.828837E-1,2.8552657E-1,-2.4156569E-2,1.2016914E-1,-4.65991E-2,-8.943772E-3,3.0952407E-2,7.372027E-2,9.610814E-2,-5.209456E-2,3.9108377E-2,-5.4649066E-2,8.711675E-2,-1.5705192E-2,-2.9536454E-2,-5.3976625E-2,-3.8134426E-2,6.022796E-2],"split_indices":[3,6,4,4,6,5,4,3,6,5,4,0,6,1,5,0,0,0,0,0,0,0,0,0,0,0,0,0,0,0,0],"split_type":[0,0,0,0,0,0,0,0,0,0,0,0,0,0,0,0,0,0,0,0,0,0,0,0,0,0,0,0,0,0,0],"sum_hessian":[3.3399644E3,1.2282098E3,2.1117544E3,1.911987E2,1.0370111E3,4.3957755E2,1.6721769E3,2.3035803E1,1.681629E2,9.7073804E2,6.627309E1,2.879456E2,1.5163196E2,1.2954513E3,3.7672552E2,1.1561618E1,1.1474184E1,8.217266E1,8.599024E1,4.145742E2,5.561639E2,1.092207E1,5.535102E1,1.0310253E2,1.8484306E2,1.2763068E2,2.4001282E1,7.4674634E2,5.48705E2,2.4794598E2,1.2877956E2],"tree_param":{"num_deleted":"0","num_feature":"7","num_nodes":"31","size_leaf_vector":"1"}},{"base_weights":[-1.391382E-3,7.1746933E-1,-1.5489417E-1,-5.8542576E-2,9.0214866E-1,-5.3424656E-1,-2.5711216E-2,1.0267998E0,6.542863E-1,1.05295934E-1,-5.4078513E-1,9.9001266E-2,-5.383689E-1,-2.3288963E-2,1.0734703E-1,9.413833E-2,4.0299516E-2,-5.671346E-2,-3.2440107E-2,4.2124093E-2,1.555814E-3,-4.2870276E-2,-5.799417E-2],"categories":[],"categories_nodes":[],"categories_segments":[],"categories_sizes":[],"default_left":[0,0,0,0,0,0,0,0,0,0,0,0,0,0,0,0,0,0,0,0,0,0,0],"id":29,"left_children":[1,3,5,-1,7,9,11,13,15,-1,17,19,21,-1,-1,-1,-1,-1,-1,-1,-1,-1,-1],"loss_changes":[3.6800064E2,1.4172797E2,1.3465959E2,0E0,1.5220123E1,7.813797E0,1.3118727E2,2.0267456E1,1.2236855E1,0E0,3.7834778E0,4.437529E1,1.5817719E0,0E0,0E0,0E0,0E0,0E0,0E0,0E0,0E0,0E0,0E0],"parents":[2147483647,0,0,1,1,2,2,4,4,5,5,6,6,7,7,8,8,10,10,11,11,12,12],"right_children":[2,4,6,-1,8,10,12,14,16,-1,18,20,22,-1,-1,-1,-1,-1,-1,-1,-1,-1,-1],"split_conditions":[-1.2139082E0,2.0731183E-2,1.2465928E-1,-5.8542576E-2,6.0912555E-1,-1.1149755E0,6.666483E-1,1.5938458E-1,6.3615805E-1,1.05295934E-1,5.862093E-1,4.1728503E-1,4.3877324E-1,-2.3288963E-2,1.0734703E-1,9.413833E-2,4.0299516E-2,-5.671346E-2,-3.2440107E-2,4.2124093E-2,1.555814E-3,-4.2870276E-2,-5.799417E-2],"split_indices":[5,3,0,0,0,4,5,2,1,0,3,2,2,0,0,0,0,0,0,0,0,0,0],"split_type":[0,0,0,0,0,0,0,0,0,0,0,0,0,0,0,0,0,0,0,0,0,0,0],"sum_hessian":[3.332929E3,5.8582227E2,2.7471067E3,7.245924E1,5.1336304E2,6.9704956E2,2.0500574E3,3.3948953E2,1.7387347E2,2.2031558E0,6.948464E2,1.6495771E3,4.004801E2,1.1985911E1,3.2750363E2,7.987319E1,9.400028E1,6.1797363E2,7.6872734E1,3.3846167E2,1.3111155E3,1.1319405E2,2.8728604E2],"tree_param":{"num_deleted":"0","num_feature":"7","num_nodes":"23","size_leaf_vector":"1"}},{"base_weights":[2.7534172E-3,-3.9551562E-1,1.8165708E-1,-3.625253E-2,-4.6522415E-1,-1.7041528E-1,2.5441667E-1,8.8312197E-1,-1.781902E-1,-5.2448195E-1,-2.559525E-1,-3.977219E-1,2.4276486E-1,1.2660629E-1,4.4013444E-1,9.433385E-2,4.1384446E-3,-3.0207038E-2,4.24819E-2,-5.6214012E-2,-3.7113946E-2,-5.83879E-2,-1.318827E-2,-5.2764934E-2,-1.0984317E-2,7.169268E-2,-4.326716E-3,3.3211146E-2,-1.0382732E-2,6.158824E-2,2.3022307E-2],"categories":[],"categories_nodes":[],"categories_segments":[],"categories_sizes":[],"default_left":[0,0,0,0,0,0,0,0,0,0,0,0,0,0,0,0,0,0,0,0,0,0,0,0,0,0,0,0,0,0,0],"id":30,"left_children":[1,3,5,7,9,11,13,15,17,19,21,23,25,27,29,-1,-1,-1,-1,-1,-1,-1,-1,-1,-1,-1,-1,-1,-1,-1,-1],"loss_changes":[2.3877325E2,2.5996872E1,5.9278694E1,2.2325695E1,1.06528015E1,3.7347687E1,4.5441383E1,1.1210384E0,1.1183529E1,3.7004395E0,7.8123083E0,9.526569E0,1.9206352E1,5.386722E1,2.8669037E1,0E0,0E0,0E0,0E0,0E0,0E0,0E0,0E0,0E0,0E0,0E0,0E0,0E0,0E0,0E0,0E0],"parents":[2147483647,0,0,1,1,2,2,3,3,4,4,5,5,6,6,7,7,8,8,9,9,10,10,11,11,12,12,13,13,14,14],"right_children":[2,4,6,8,10,12,14,16,18,20,22,24,26,28,30,-1,-1,-1,-1,-1,-1,-1,-1,-1,-1,-1,-1,-1,-1,-1,-1],"split_conditions":[4.131821E-1,-6.6941655E-1,4.2084968E-1,-2.6554275E0,4.9361268E-1,6.898247E-1,-2.4922127E-1,-5.9195465E-1,-1.03555E0,-1.07383706E-1,-3.1573966E-1,-1.6659991E-1,-2.9311016E-1,1.2683661E-1,-2.0189087E-1,9.433385E-2,4.1384446E-3,-3.0207038E-2,4.24819E-2,-5.6214012E-2,-3.7113946E-2,-5.83879E-2,-1.318827E-2,-5.2764934E-2,-1.0984317E-2,7.169268E-2,-4.326716E-3,3.3211146E-2,-1.0382732E-2,6.158824E-2,2.3022307E-2],"split_indices":[3,6,0,3,0,1,4,5,5,4,4,6,4,6,4,0,0,0,0,0,0,0,0,0,0,0,0,0,0,0,0],"split_type":[0,0,0,0,0,0,0,0,0,0,0,0,0,0,0,0,0,0,0,0,0,0,0,0,0,0,0,0,0,0,0],"sum_hessian":[3.349111E3,1.0377338E3,2.3113772E3,1.6888025E2,8.688535E2,3.956322E2,1.9157451E3,2.1887325E1,1.4699292E2,6.759451E2,1.9290837E2,2.5524779E2,1.4038441E2,1.1357839E3,7.799611E2,2.031343E1,1.5738952E0,1.2235565E2,2.4637274E1,5.405339E2,1.3541127E2,5.19347E1,1.4097366E2,1.7529813E2,7.994966E1,5.2254486E1,8.812993E1,6.0013275E2,5.3565125E2,4.2347412E2,3.56487E2],"tree_param":{"num_deleted":"0","num_feature":"7","num_nodes":"31","size_leaf_vector":"1"}},{"base_weights":[2.2223042E-3,-3.6635426E-1,1.69602E-1,-4.6554172E-1,-4.1303266E-2,-3.8566718E-1,2.147924E-1,-5.502326E-1,-1.8118578E-1,1.0717282E-1,-3.523086E-1,1.01994514E-1,-4.150315E-1,1.0270771E-1,3.9417595E-1,-1.7586626E-2,-5.5178303E-2,6.331867E-2,-5.5333354E-2,1.1672272E-1,3.9368304E-3,-4.787064E-2,8.740119E-2,-4.9589004E-2,-1.4729211E-2,8.4111746E-4,3.6394518E-2,8.074351E-3,5.893106E-2],"categories":[],"categories_nodes":[],"categories_segments":[],"categories_sizes":[],"default_left":[0,0,0,0,0,0,0,0,0,0,0,0,0,0,0,0,0,0,0,0,0,0,0,0,0,0,0,0,0],"id":31,"left_children":[1,3,5,7,9,11,13,15,17,19,21,-1,23,25,27,-1,-1,-1,-1,-1,-1,-1,-1,-1,-1,-1,-1,-1,-1],"loss_changes":[2.0642955E2,3.3672516E1,5.782428E1,1.9180145E1,1.1370445E1,7.586094E0,4.2756943E1,2.6072693E-1,5.6482067E1,1.1948909E1,1.2747057E1,0E0,3.6224117E0,3.2301178E1,4.999449E1,0E0,0E0,0E0,0E0,0E0,0E0,0E0,0E0,0E0,0E0,0E0,0E0,0E0,0E0],"parents":[2147483647,0,0,1,1,2,2,3,3,4,4,5,5,6,6,7,7,8,8,9,9,10,10,12,12,13,13,14,14],"right_children":[2,4,6,8,10,12,14,16,18,20,22,-1,24,26,28,-1,-1,-1,-1,-1,-1,-1,-1,-1,-1,-1,-1,-1,-1],"split_conditions":[3.4174955E-1,4.489707E-1,-1.2627932E0,5.434388E-1,5.4095393E-1,-2.8048117E0,6.5784705E-1,-2.8520343E0,1.6636822E0,-1.1070104E0,8.3470887E-1,1.01994514E-1,-1.3356378E0,5.901967E-1,5.3276086E-1,-1.7586626E-2,-5.5178303E-2,6.331867E-2,-5.5333354E-2,1.1672272E-1,3.9368304E-3,-4.787064E-2,8.740119E-2,-4.9589004E-2,-1.4729211E-2,8.4111746E-4,3.6394518E-2,8.074351E-3,5.893106E-2],"split_indices":[1,0,5,4,3,3,0,6,4,4,6,0,5,5,2,0,0,0,0,0,0,0,0,0,0,0,0,0,0],"split_type":[0,0,0,0,0,0,0,0,0,0,0,0,0,0,0,0,0,0,0,0,0,0,0,0,0,0,0,0,0],"sum_hessian":[3.3441116E3,1.0439983E3,2.3001133E3,7.995791E2,2.4441922E2,1.7253871E2,2.1275745E3,6.153668E2,1.8421227E2,1.658816E2,7.853761E1,2.8403964E0,1.6969832E2,1.3103794E3,8.171951E2,3.0099795E0,6.123568E2,5.7557503E1,1.2665476E2,8.997667E0,1.5688394E2,7.175175E1,6.785866E0,1.296817E2,4.001662E1,9.635923E2,3.4678705E2,3.140961E2,5.03099E2],"tree_param":{"num_deleted":"0","num_feature":"7","num_nodes":"29","size_leaf_vector":"1"}},{"base_weights":[-3.5206699E-3,5.017186E-1,-2.8502965E-1,5.9184605E-1,-2.200473E-2,-3.2877272E-1,8.367402E-1,-9.875578E-2,6.534162E-1,1.9608937E-1,-5.297685E-1,-1.089046E-1,-4.3802765E-1,9.6214694E-1,5.7477865E-2,7.167565E-2,-5.4018248E-2,3.475258E-2,7.363035E-2,5.2276112E-2,-1.4440891E-2,-5.6101244E-2,-8.4299936E-5,-3.930039E-2,1.4177685E-2,-9.44122E-3,-4.8720717E-2,9.975185E-2,-3.8788762E-2,9.8310314E-2,-2.2180341E-2],"categories":[],"categories_nodes":[],"categories_segments":[],"categories_sizes":[],"default_left":[0,0,0,0,0,0,0,0,0,0,0,0,0,0,0,0,0,0,0,0,0,0,0,0,0,0,0,0,0,0,0],"id":32,"left_children":[1,3,5,7,9,11,13,15,17,19,21,23,25,27,29,-1,-1,-1,-1,-1,-1,-1,-1,-1,-1,-1,-1,-1,-1,-1,-1],"loss_changes":[4.6823602E2,5.5615204E1,1.0401553E2,4.2799683E1,1.9363482E1,4.884886E1,7.726372E0,3.0316132E1,2.3144043E1,1.3689177E1,8.6755466E-1,4.8273212E1,2.2927643E1,3.6592674E0,3.3464825E0,0E0,0E0,0E0,0E0,0E0,0E0,0E0,0E0,0E0,0E0,0E0,0E0,0E0,0E0,0E0,0E0],"parents":[2147483647,0,0,1,1,2,2,3,3,4,4,5,5,6,6,7,7,8,8,9,9,10,10,11,11,12,12,13,13,14,14],"right_children":[2,4,6,8,10,12,14,16,18,20,22,24,26,28,30,-1,-1,-1,-1,-1,-1,-1,-1,-1,-1,-1,-1,-1,-1,-1,-1],"split_conditions":[1.0313329E-1,5.434388E-1,1.9228157E0,-9.900077E-1,-3.512542E-1,4.7835454E-1,7.090031E-1,-6.5520227E-1,-2.3149266E0,-1.01569116E-1,1.9495616E0,2.4769288E-1,2.9799873E-1,8.31636E-1,2.3319048E-1,7.167565E-2,-5.4018248E-2,3.475258E-2,7.363035E-2,5.2276112E-2,-1.4440891E-2,-5.6101244E-2,-8.4299936E-5,-3.930039E-2,1.4177685E-2,-9.44122E-3,-4.8720717E-2,9.975185E-2,-3.8788762E-2,9.8310314E-2,-2.2180341E-2],"split_indices":[2,4,6,4,1,3,0,3,0,5,5,6,1,2,3,0,0,0,0,0,0,0,0,0,0,0,0,0,0,0,0],"split_type":[0,0,0,0,0,0,0,0,0,0,0,0,0,0,0,0,0,0,0,0,0,0,0,0,0,0,0,0,0,0,0],"sum_hessian":[3.2901133E3,1.1769664E3,2.1131467E3,1.00404956E3,1.7291682E2,2.0345183E3,7.862849E1,8.213854E1,9.21911E2,1.21390945E2,5.152588E1,6.760368E2,1.3584814E3,6.752672E1,1.1101771E1,2.8627335E1,5.3511204E1,1.976582E2,7.242528E2,6.1680153E1,5.9710793E1,4.85947E1,2.9311783E0,3.1662988E2,3.5940692E2,1.70453E2,1.1880284E3,6.6057106E1,1.4696102E0,1.9891127E0,9.1126585E0],"tree_param":{"num_deleted":"0","num_feature":"7","num_nodes":"31","size_leaf_vector":"1"}},{"base_weights":[2.3796149E-4,3.7053618E-1,-2.1912444E-1,-1.6192539E-1,4.639825E-1,1.01882614E-1,-3.077717E-1,-3.114098E-1,2.3876706E-1,5.1402634E-1,-2.1288449E-1,-5.332305E-1,3.5835832E-1,-3.8988242E-1,-3.7601866E-2,-3.7494555E-2,2.2335773E-2,1.0805875E-1,-2.6206125E-2,2.8489722E-2,6.8693645E-2,9.358736E-2,-5.2239366E-2,-5.7510626E-2,2.3192437E-3,-4.619277E-4,8.7826215E-2,-2.8487021E-2,-5.3288735E-2,-3.6877E-2,5.6485426E-2],"categories":[],"categories_nodes":[],"categories_segments":[],"categories_sizes":[],"default_left":[0,0,0,0,0,0,0,0,0,0,0,0,0,0,0,0,0,0,0,0,0,0,0,0,0,0,0,0,0,0,0],"id":33,"left_children":[1,3,5,7,9,11,13,15,17,19,21,23,25,27,29,-1,-1,-1,-1,-1,-1,-1,-1,-1,-1,-1,-1,-1,-1,-1,-1],"loss_changes":[2.6904547E2,6.1383835E1,5.9220413E1,1.1137463E1,3.5624374E1,7.363078E1,3.6148087E1,4.668977E0,2.1679688E1,3.84953E1,2.6404564E1,3.0446243E0,6.0723938E1,1.8620895E1,7.623622E1,0E0,0E0,0E0,0E0,0E0,0E0,0E0,0E0,0E0,0E0,0E0,0E0,0E0,0E0,0E0,0E0],"parents":[2147483647,0,0,1,1,2,2,3,3,4,4,5,5,6,6,7,7,8,8,9,9,10,10,11,11,12,12,13,13,14,14],"right_children":[2,4,6,8,10,12,14,16,18,20,22,24,26,28,30,-1,-1,-1,-1,-1,-1,-1,-1,-1,-1,-1,-1,-1,-1,-1,-1],"split_conditions":[2.7251935E-1,-3.750916E-1,-3.8308057E-1,-7.4807465E-2,1.6115433E0,-1.037804E0,1.6636822E0,1.6636822E0,-3.986264E-1,1.6746722E-2,-9.900077E-1,-1.0062704E0,-1.0709419E0,6.828837E-1,2.8552657E-1,-3.7494555E-2,2.2335773E-2,1.0805875E-1,-2.6206125E-2,2.8489722E-2,6.8693645E-2,9.358736E-2,-5.2239366E-2,-5.7510626E-2,2.3192437E-3,-4.619277E-4,8.7826215E-2,-2.8487021E-2,-5.3288735E-2,-3.6877E-2,5.6485426E-2],"split_indices":[3,6,4,2,6,6,4,4,4,5,4,5,4,1,5,0,0,0,0,0,0,0,0,0,0,0,0,0,0,0,0],"split_type":[0,0,0,0,0,0,0,0,0,0,0,0,0,0,0,0,0,0,0,0,0,0,0,0,0,0,0,0,0,0,0],"sum_hessian":[3.3101646E3,1.2311733E3,2.0789912E3,1.8370137E2,1.047472E3,4.498516E2,1.6291395E3,1.3395152E2,4.9749832E1,9.7558325E2,7.1888725E1,1.2909454E2,3.2075705E2,1.2490745E3,3.8006506E2,1.1999391E2,1.395762E1,1.8125639E1,3.1624195E1,4.2072015E2,5.5486316E2,1.4828459E1,5.706027E1,1.2002781E2,9.066737E0,1.8946837E2,1.3128868E2,7.2193274E2,5.271418E2,2.4550157E2,1.3456349E2],"tree_param":{"num_deleted":"0","num_feature":"7","num_nodes":"31","size_leaf_vector":"1"}},{"base_weights":[-1.7743608E-3,6.691315E-1,-1.4520684E-1,-5.793357E-2,8.3742833E-1,-5.465573E-1,-2.8145043E-2,9.519417E-1,5.795307E-1,-5.626413E-1,-2.600783E-1,9.072829E-2,-5.117048E-1,1.0097088E-1,2.032748E-3,3.1441208E-2,9.535562E-2,-5.684034E-2,-2.3797117E-3,9.095334E-2,-3.5009418E-2,-1.849681E-2,1.8152026E-2,-2.9594427E-2,-5.5613637E-2],"categories":[],"categories_nodes":[],"categories_segments":[],"categories_sizes":[],"default_left":[0,0,0,0,0,0,0,0,0,0,0,0,0,0,0,0,0,0,0,0,0,0,0,0,0],"id":34,"left_children":[1,3,5,-1,7,9,11,13,15,17,19,21,23,-1,-1,-1,-1,-1,-1,-1,-1,-1,-1,-1,-1],"loss_changes":[3.1785522E2,1.2272598E2,1.2783861E2,0E0,1.4601135E1,2.684845E0,1.2121104E2,1.9017578E1,1.5598267E1,1.7901306E0,3.95309E0,4.240557E1,3.8241577E0,0E0,0E0,0E0,0E0,0E0,0E0,0E0,0E0,0E0,0E0,0E0,0E0],"parents":[2147483647,0,0,1,1,2,2,4,4,5,5,6,6,7,7,8,8,9,9,10,10,11,11,12,12],"right_children":[2,4,6,-1,8,10,12,14,16,18,20,22,24,-1,-1,-1,-1,-1,-1,-1,-1,-1,-1,-1,-1],"split_conditions":[-1.2283976E0,2.0731183E-2,1.0313329E-1,-5.793357E-2,6.04434E-1,1.6821754E0,6.0941947E-1,-1.1250937E0,5.7505506E-1,8.0525255E-1,-1.0880876E0,-5.156823E-1,6.346759E-1,1.0097088E-1,2.032748E-3,3.1441208E-2,9.535562E-2,-5.684034E-2,-2.3797117E-3,9.095334E-2,-3.5009418E-2,-1.849681E-2,1.8152026E-2,-2.9594427E-2,-5.5613637E-2],"split_indices":[5,3,2,0,1,5,5,6,2,3,4,6,6,0,0,0,0,0,0,0,0,0,0,0,0],"split_type":[0,0,0,0,0,0,0,0,0,0,0,0,0,0,0,0,0,0,0,0,0,0,0,0,0],"sum_hessian":[3.3010796E3,5.80786E2,2.7202935E3,6.870121E1,5.120848E2,6.134364E2,2.1068572E3,3.527592E2,1.593256E2,5.7991376E2,3.3522644E1,1.6917798E3,4.150773E2,3.3208368E2,2.0675497E1,9.431406E1,6.501155E1,5.737239E2,6.1898975E0,1.7450013E0,3.1777645E1,4.18856E2,1.2729238E3,7.218864E1,3.4288867E2],"tree_param":{"num_deleted":"0","num_feature":"7","num_nodes":"25","size_leaf_vector":"1"}},{"base_weights":[3.172508E-3,-3.8780868E-1,1.6778019E-1,-2.9201448E-2,-4.6031412E-1,-1.6600406E-1,2.3468749E-1,7.2806025E-1,-1.8238682E-1,-5.0934726E-1,-2.2946393E-1,-4.430108E-1,1.542288E-1,1.4181325E-2,3.3378395E-1,7.814326E-2,-3.30729E-2,-3.162792E-2,4.427517E-2,1.07661E-2,-5.2034497E-2,-5.366955E-2,3.153422E-4,5.683259E-2,-4.720522E-2,-5.485968E-2,3.5181664E-2,-1.3837344E-2,5.8075566E-2,-4.937319E-2,3.592969E-2],"categories":[],"categories_nodes":[],"categories_segments":[],"categories_sizes":[],"default_left":[0,0,0,0,0,0,0,0,0,0,0,0,0,0,0,0,0,0,0,0,0,0,0,0,0,0,0,0,0,0,0],"id":35,"left_children":[1,3,5,7,9,11,13,15,17,19,21,23,25,27,29,-1,-1,-1,-1,-1,-1,-1,-1,-1,-1,-1,-1,-1,-1,-1,-1],"loss_changes":[2.145123E2,2.5662918E1,5.242137E1,1.9522446E1,9.18042E0,3.4863155E1,4.269967E1,1.8590231E0,1.18436775E1,4.6475677E0,1.041563E1,6.453022E0,2.5560352E1,5.2545662E1,2.8643433E1,0E0,0E0,0E0,0E0,0E0,0E0,0E0,0E0,0E0,0E0,0E0,0E0,0E0,0E0,0E0,0E0],"parents":[2147483647,0,0,1,1,2,2,3,3,4,4,5,5,6,6,7,7,8,8,9,9,10,10,11,11,12,12,13,13,14,14],"right_children":[2,4,6,8,10,12,14,16,18,20,22,24,26,28,30,-1,-1,-1,-1,-1,-1,-1,-1,-1,-1,-1,-1,-1,-1,-1,-1],"split_conditions":[4.0882042E-1,-6.6941655E-1,4.2084968E-1,-2.2792158E0,3.0758992E-1,2.562947E-3,5.224064E-1,-5.4911727E-1,-1.03555E0,-2.9182234E0,2.9034683E-1,-7.5087184E-1,-3.5618067E-1,6.6863406E-1,-1.4042119E0,7.814326E-2,-3.30729E-2,-3.162792E-2,4.427517E-2,1.07661E-2,-5.2034497E-2,-5.366955E-2,3.153422E-4,5.683259E-2,-4.720522E-2,-5.485968E-2,3.5181664E-2,-1.3837344E-2,5.8075566E-2,-4.937319E-2,3.592969E-2],"split_indices":[3,6,0,3,3,5,3,5,5,3,6,0,4,2,5,0,0,0,0,0,0,0,0,0,0,0,0,0,0,0,0],"split_type":[0,0,0,0,0,0,0,0,0,0,0,0,0,0,0,0,0,0,0,0,0,0,0,0,0,0,0,0,0,0,0],"sum_hessian":[3.331073E3,9.8651544E2,2.3445576E3,1.6615016E2,8.203653E2,3.9124594E2,1.9533116E3,2.7323826E1,1.3882634E2,6.7564935E2,1.4471593E2,2.095759E2,1.8167004E2,6.0600116E2,1.3473105E3,2.6261948E1,1.061878E0,1.147444E2,2.4081936E1,1.1678161E1,6.639712E2,6.1793884E1,8.292205E1,5.3317986E0,2.042441E2,3.9476067E1,1.4219398E2,4.780406E2,1.27960556E2,3.974737E1,1.3075631E3],"tree_param":{"num_deleted":"0","num_feature":"7","num_nodes":"31","size_leaf_vector":"1"}},{"base_weights":[2.7023987E-3,-3.6996683E-1,1.5410481E-1,-4.1791677E-1,4.0051746E-1,-3.5236013E-1,1.9221328E-1,-5.0447375E-1,-1.4277671E-1,-1.7739134E-2,6.7503357E-1,8.968167E-1,-4.0288255E-1,-2.3876476E-1,2.3543063E-1,-5.3764004E-2,-2.418081E-2,6.1700203E-2,-4.8792116E-2,8.2855396E-2,-3.7646633E-2,1.9613465E-2,1.2006354E-1,1.13895275E-1,2.0727247E-2,2.9374433E-3,-4.418108E-2,-4.130013E-2,1.6314639E-2,4.440348E-2,1.5738241E-2],"categories":[],"categories_nodes":[],"categories_segments":[],"categories_sizes":[],"default_left":[0,0,0,0,0,0,0,0,0,0,0,0,0,0,0,0,0,0,0,0,0,0,0,0,0,0,0,0,0,0,0],"id":36,"left_children":[1,3,5,7,9,11,13,15,17,19,21,23,25,27,29,-1,-1,-1,-1,-1,-1,-1,-1,-1,-1,-1,-1,-1,-1,-1,-1],"loss_changes":[1.877237E2,3.5677933E1,4.5730694E1,2.1489365E1,6.536381E0,1.0832386E1,4.1050865E1,5.8662415E0,5.748214E1,7.4435887E0,8.406371E0,8.92509E-1,2.707903E0,1.4149162E1,3.2506798E1,0E0,0E0,0E0,0E0,0E0,0E0,0E0,0E0,0E0,0E0,0E0,0E0,0E0,0E0,0E0,0E0],"parents":[2147483647,0,0,1,1,2,2,3,3,4,4,5,5,6,6,7,7,8,8,9,9,10,10,11,11,12,12,13,13,14,14],"right_children":[2,4,6,8,10,12,14,16,18,20,22,24,26,28,30,-1,-1,-1,-1,-1,-1,-1,-1,-1,-1,-1,-1,-1,-1,-1,-1],"split_conditions":[3.48323E-1,7.5929534E-1,-1.2627932E0,5.434388E-1,-3.011294E-1,-2.4613333E0,3.560136E-1,5.2982765E-1,1.6636822E0,-3.5361174E-1,3.9865643E-1,1.4660087E0,9.95306E-2,-2.1988854E-1,-2.833276E-1,-5.3764004E-2,-2.418081E-2,6.1700203E-2,-4.8792116E-2,8.2855396E-2,-3.7646633E-2,1.9613465E-2,1.2006354E-1,1.13895275E-1,2.0727247E-2,2.9374433E-3,-4.418108E-2,-4.130013E-2,1.6314639E-2,4.440348E-2,1.5738241E-2],"split_indices":[0,1,5,4,4,2,2,1,4,4,5,4,1,4,5,0,0,0,0,0,0,0,0,0,0,0,0,0,0,0,0],"split_type":[0,0,0,0,0,0,0,0,0,0,0,0,0,0,0,0,0,0,0,0,0,0,0,0,0,0,0,0,0,0,0],"sum_hessian":[3.3250654E3,9.601824E2,2.364883E3,9.043586E2,5.5823814E1,1.6491405E2,2.199969E3,6.873044E2,2.1705418E2,2.2491236E1,3.333258E1,5.7594576E0,1.591546E2,2.00089E2,1.99988E3,6.093199E2,7.798454E1,6.755509E1,1.4949908E2,6.305613E0,1.6185623E1,1.8159668E1,1.5172911E1,3.7802587E0,1.9791992E0,1.3169269E1,1.4598532E2,1.3955956E2,6.0529457E1,5.432401E2,1.4566399E3],"tree_param":{"num_deleted":"0","num_feature":"7","num_nodes":"31","size_leaf_vector":"1"}},{"base_weights":[-4.140925E-3,4.517527E-1,-2.8058767E-1,5.314063E-1,-2.2982083E-2,-3.2517758E-1,7.1298367E-1,-1.08038306E-1,5.886208E-1,1.9529971E-1,-4.730688E-1,-2.120562E-1,-5.3345424E-1,7.9523027E-1,-2.3865256E-1,5.791123E-2,-5.041764E-2,5.2273657E-2,9.49699E-2,4.953427E-2,-1.365415E-2,-5.278745E-2,1.85033E-2,-3.6670152E-2,-3.1599544E-3,-1.7311012E-2,-5.528862E-2,9.4815634E-2,1.1899059E-2,7.020148E-2,-5.3680446E-2],"categories":[],"categories_nodes":[],"categories_segments":[],"categories_sizes":[],"default_left":[0,0,0,0,0,0,0,0,0,0,0,0,0,0,0,0,0,0,0,0,0,0,0,0,0,0,0,0,0,0,0],"id":37,"left_children":[1,3,5,7,9,11,13,15,17,19,21,23,25,27,29,-1,-1,-1,-1,-1,-1,-1,-1,-1,-1,-1,-1,-1,-1,-1,-1],"loss_changes":[4.100892E2,4.6459396E1,8.997217E1,3.8546387E1,1.752492E1,4.55773E1,7.023758E0,2.4036795E1,2.247519E1,1.2035196E1,2.1983137E0,3.5105637E1,4.679077E0,8.222294E0,2.5406373E0,0E0,0E0,0E0,0E0,0E0,0E0,0E0,0E0,0E0,0E0,0E0,0E0,0E0,0E0,0E0,0E0],"parents":[2147483647,0,0,1,1,2,2,3,3,4,4,5,5,6,6,7,7,8,8,9,9,10,10,11,11,12,12,13,13,14,14],"right_children":[2,4,6,8,10,12,14,16,18,20,22,24,26,28,30,-1,-1,-1,-1,-1,-1,-1,-1,-1,-1,-1,-1,-1,-1,-1,-1],"split_conditions":[1.5938458E-1,5.434388E-1,1.7987915E0,-9.900077E-1,-4.3290016E-1,6.989871E-1,7.921005E-1,-6.5520227E-1,8.0896276E-1,-1.01569116E-1,1.9121842E0,1.9583075E-1,3.8065997E-1,5.7913226E-1,-1.2944365E-1,5.791123E-2,-5.041764E-2,5.2273657E-2,9.49699E-2,4.953427E-2,-1.365415E-2,-5.278745E-2,1.85033E-2,-3.6670152E-2,-3.1599544E-3,-1.7311012E-2,-5.528862E-2,9.4815634E-2,1.1899059E-2,7.020148E-2,-5.3680446E-2],"split_indices":[2,4,6,4,1,1,2,3,6,5,5,6,3,3,3,0,0,0,0,0,0,0,0,0,0,0,0,0,0,0,0],"split_type":[0,0,0,0,0,0,0,0,0,0,0,0,0,0,0,0,0,0,0,0,0,0,0,0,0,0,0,0,0,0,0],"sum_hessian":[3.2518877E3,1.2272961E3,2.0245916E3,1.0508582E3,1.7643803E2,1.9382775E3,8.63141E1,8.62309E1,9.646272E2,1.19196526E2,5.7241516E1,1.2573763E3,6.809012E2,7.9599E1,6.715109E0,3.1364096E1,5.4866806E1,8.178464E2,1.4678088E2,6.2338673E1,5.6857853E1,5.302367E1,4.2178454E0,6.7655725E2,5.8081903E2,3.5346546E1,6.455547E2,6.4590324E1,1.5008672E1,1.2901474E0,5.4249616E0],"tree_param":{"num_deleted":"0","num_feature":"7","num_nodes":"31","size_leaf_vector":"1"}},{"base_weights":[4.914442E-4,3.0685768E-1,-2.3883729E-1,-2.8574243E-1,4.1319868E-1,-4.2334354E-1,5.234418E-2,-4.3877938E-1,1.8471864E-1,8.6896706E-1,2.9222497E-1,-5.4185915E-1,-2.557857E-1,6.189228E-1,-1.0016591E-1,-8.382122E-3,-5.341695E-2,1.2541875E-1,-3.135357E-2,3.9996188E-2,1.1205528E-1,4.1468695E-2,-4.6582486E-2,9.124712E-3,-5.5789012E-2,-9.593396E-3,-5.2150737E-2,6.5528336E-3,8.8581905E-2,-2.7453681E-2,5.3602226E-2],"categories":[],"categories_nodes":[],"categories_segments":[],"categories_sizes":[],"default_left":[0,0,0,0,0,0,0,0,0,0,0,0,0,0,0,0,0,0,0,0,0,0,0,0,0,0,0,0,0,0,0],"id":38,"left_children":[1,3,5,7,9,11,13,15,17,19,21,23,25,27,29,-1,-1,-1,-1,-1,-1,-1,-1,-1,-1,-1,-1,-1,-1,-1,-1],"loss_changes":[2.4058047E2,9.080231E1,9.898921E1,1.5886999E1,6.7039276E1,2.225586E1,6.1878494E1,5.574051E0,2.9481398E1,2.9699112E1,8.9869026E1,6.7456512E0,1.987503E1,2.2372383E1,6.2771847E1,0E0,0E0,0E0,0E0,0E0,0E0,0E0,0E0,0E0,0E0,0E0,0E0,0E0,0E0,0E0,0E0],"parents":[2147483647,0,0,1,1,2,2,3,3,4,4,5,5,6,6,7,7,8,8,9,9,10,10,11,11,12,12,13,13,14,14],"right_children":[2,4,6,8,10,12,14,16,18,20,22,24,26,28,30,-1,-1,-1,-1,-1,-1,-1,-1,-1,-1,-1,-1,-1,-1,-1,-1],"split_conditions":[3.783091E-1,-9.349167E-1,3.7606594E-1,1.6636822E0,-5.579564E-1,-2.887832E-2,-9.4794065E-1,-9.0517884E-1,-1.0854784E-1,-6.5520227E-1,8.0896276E-1,2.0731183E-2,6.66588E-1,4.4216892E-1,1.4383184E0,-8.382122E-3,-5.341695E-2,1.2541875E-1,-3.135357E-2,3.9996188E-2,1.1205528E-1,4.1468695E-2,-4.6582486E-2,9.124712E-3,-5.5789012E-2,-9.593396E-3,-5.2150737E-2,6.5528336E-3,8.8581905E-2,-2.7453681E-2,5.3602226E-2],"split_indices":[0,5,5,4,4,5,4,4,1,3,6,3,1,1,4,0,0,0,0,0,0,0,0,0,0,0,0,0,0,0,0],"split_type":[0,0,0,0,0,0,0,0,0,0,0,0,0,0,0,0,0,0,0,0,0,0,0,0,0,0,0,0,0,0,0],"sum_hessian":[3.27914E3,1.4380284E3,1.8411115E3,2.185334E2,1.219495E3,1.1267169E3,7.143946E2,1.6494542E2,5.358799E1,2.5449648E2,9.6499854E2,6.5862775E2,4.6808914E2,1.508659E2,5.635287E2,3.5335693E1,1.2960973E2,1.654917E1,3.7038822E1,8.975859E1,1.6473788E2,8.31176E2,1.3382246E2,1.6149422E1,6.4247833E2,2.9311765E2,1.749715E2,4.9492157E1,1.0137374E2,4.4274615E2,1.2078251E2],"tree_param":{"num_deleted":"0","num_feature":"7","num_nodes":"31","size_leaf_vector":"1"}},{"base_weights":[-2.3568452E-3,6.092709E-1,-1.4037758E-1,-5.2673E-1,7.6249784E-1,-5.1905715E-1,-2.1706048E-2,-5.4109496E-1,2.104289E-2,8.765989E-1,5.397175E-1,9.799352E-2,-5.2608365E-1,8.865079E-2,-5.2321786E-1,-5.5684973E-2,1.1104706E-2,-5.365733E-2,8.9913405E-2,8.295351E-2,3.493541E-2,-5.5430938E-2,-3.059105E-2,2.1581901E-2,-9.10126E-3,-4.066603E-2,-5.682025E-2],"categories":[],"categories_nodes":[],"categories_segments":[],"categories_sizes":[],"default_left":[0,0,0,0,0,0,0,0,0,0,0,0,0,0,0,0,0,0,0,0,0,0,0,0,0,0,0],"id":39,"left_children":[1,3,5,7,9,11,13,15,-1,17,19,-1,21,23,25,-1,-1,-1,-1,-1,-1,-1,-1,-1,-1,-1,-1],"loss_changes":[2.7593356E2,1.0515643E2,1.1983339E2,8.775368E-1,1.3016846E1,7.2173157E0,1.1248425E2,7.9151154E-1,0E0,1.1607758E1,9.770401E0,0E0,3.7702637E0,3.808381E1,1.690918E0,0E0,0E0,0E0,0E0,0E0,0E0,0E0,0E0,0E0,0E0,0E0,0E0],"parents":[2147483647,0,0,1,1,2,2,3,3,4,4,5,5,6,6,7,7,9,9,10,10,12,12,13,13,14,14],"right_children":[2,4,6,8,10,12,14,16,-1,18,20,-1,22,24,26,-1,-1,-1,-1,-1,-1,-1,-1,-1,-1,-1,-1],"split_conditions":[-1.2139082E0,7.732138E-2,1.2465928E-1,2.0802984E0,6.0912555E-1,-1.1149755E0,6.666483E-1,-1.2423286E0,2.104289E-2,2.0731183E-2,5.8963907E-1,9.799352E-2,5.862093E-1,5.4633874E-1,4.3877324E-1,-5.5684973E-2,1.1104706E-2,-5.365733E-2,8.9913405E-2,8.295351E-2,3.493541E-2,-5.5430938E-2,-3.059105E-2,2.1581901E-2,-9.10126E-3,-4.066603E-2,-5.682025E-2],"split_indices":[5,2,0,4,0,4,5,5,0,3,1,0,3,2,2,0,0,0,0,0,0,0,0,0,0,0,0],"split_type":[0,0,0,0,0,0,0,0,0,0,0,0,0,0,0,0,0,0,0,0,0,0,0,0,0,0,0],"sum_hessian":[3.2666711E3,6.008111E2,2.66586E3,7.111772E1,5.296934E2,6.352883E2,2.0305718E3,7.001923E1,1.0984874E0,3.4834647E2,1.8134692E2,2.317987E0,6.3297034E2,1.665012E3,3.6555988E2,6.8510254E1,1.5089831E0,5.1096797E0,3.432368E2,7.056224E1,1.1078469E2,5.597003E2,7.326999E1,9.748198E2,6.9019214E2,1.0459331E2,2.6096658E2],"tree_param":{"num_deleted":"0","num_feature":"7","num_nodes":"27","size_leaf_vector":"1"}},{"base_weights":[3.8490861E-3,-3.7717643E-1,1.5715523E-1,-2.418549E-2,-4.5077425E-1,-1.5866855E-1,2.1870224E-1,6.7830586E-1,-1.7246553E-1,-5.0849795E-1,-2.4752627E-1,-4.428442E-1,1.3499638E-1,1.0171041E-1,3.865014E-1,7.265105E-2,-3.211668E-2,-3.0472329E-2,4.1632444E-2,-5.4965723E-2,-3.4661204E-2,-5.7372607E-2,-1.2570763E-2,5.2477617E-2,-4.736509E-2,-5.431787E-2,3.2139275E-2,2.8716061E-2,-1.09911505E-2,-4.930596E-2,4.1980308E-2],"categories":[],"categories_nodes":[],"categories_segments":[],"categories_sizes":[],"default_left":[0,0,0,0,0,0,0,0,0,0,0,0,0,0,0,0,0,0,0,0,0,0,0,0,0,0,0,0,0,0,0],"id":40,"left_children":[1,3,5,7,9,11,13,15,17,19,21,23,25,27,29,-1,-1,-1,-1,-1,-1,-1,-1,-1,-1,-1,-1,-1,-1,-1,-1],"loss_changes":[1.9353952E2,2.4685547E1,4.5959557E1,1.731088E1,9.102158E0,3.2265E1,3.878556E1,1.6291494E0,1.080249E1,3.8848572E0,6.9186363E0,6.1018333E0,2.4262285E1,4.5816406E1,2.3993713E1,0E0,0E0,0E0,0E0,0E0,0E0,0E0,0E0,0E0,0E0,0E0,0E0,0E0,0E0,0E0,0E0],"parents":[2147483647,0,0,1,1,2,2,3,3,4,4,5,5,6,6,7,7,8,8,9,9,10,10,11,11,12,12,13,13,14,14],"right_children":[2,4,6,8,10,12,14,16,18,20,22,24,26,28,30,-1,-1,-1,-1,-1,-1,-1,-1,-1,-1,-1,-1,-1,-1,-1,-1],"split_conditions":[4.0882042E-1,-6.6941655E-1,4.2084968E-1,-2.2792158E0,4.9361268E-1,-5.885757E-2,-2.4922127E-1,-5.4911727E-1,-1.03555E0,-1.07383706E-1,-3.1573966E-1,-7.5087184E-1,-3.5618067E-1,1.2683661E-1,-1.3876129E0,7.265105E-2,-3.211668E-2,-3.0472329E-2,4.1632444E-2,-5.4965723E-2,-3.4661204E-2,-5.7372607E-2,-1.2570763E-2,5.2477617E-2,-4.736509E-2,-5.431787E-2,3.2139275E-2,2.8716061E-2,-1.09911505E-2,-4.930596E-2,4.1980308E-2],"split_indices":[3,6,0,3,0,5,4,5,5,4,4,0,4,6,5,0,0,0,0,0,0,0,0,0,0,0,0,0,0,0,0],"split_type":[0,0,0,0,0,0,0,0,0,0,0,0,0,0,0,0,0,0,0,0,0,0,0,0,0,0,0,0,0,0,0],"sum_hessian":[3.311249E3,9.49618E2,2.361631E3,1.6406332E2,7.855546E2,3.849111E2,1.9767198E3,2.7971428E1,1.360919E2,6.1063E2,1.7492465E2,1.9535788E2,1.8955324E2,1.1656318E3,8.1108813E2,2.6944979E1,1.0264509E0,1.11523285E2,2.4568613E1,4.849394E2,1.2569058E2,4.6554283E1,1.2837036E2,5.533065E0,1.8982481E2,4.045386E1,1.4909938E2,6.2104004E2,5.4459174E2,2.908522E1,7.820029E2],"tree_param":{"num_deleted":"0","num_feature":"7","num_nodes":"31","size_leaf_vector":"1"}},{"base_weights":[3.2963692E-3,-3.481827E-1,1.5056688E-1,-4.4957122E-1,-4.3717124E-2,-3.4162086E-1,1.8940271E-1,-5.368586E-1,-1.7576742E-1,9.537355E-2,-3.4454796E-1,9.228083E-2,-3.6937937E-1,-1.4262812E-1,2.3930639E-1,-1.44818975E-2,-5.3856004E-2,5.407328E-2,-5.425925E-2,-2.5603337E-2,2.7937239E-2,-4.707938E-2,7.9431266E-2,-4.7680743E-2,-1.1003713E-2,3.2413844E-2,-3.699326E-2,1.1659022E-2,4.565536E-2],"categories":[],"categories_nodes":[],"categories_segments":[],"categories_sizes":[],"default_left":[0,0,0,0,0,0,0,0,0,0,0,0,0,0,0,0,0,0,0,0,0,0,0,0,0,0,0,0,0],"id":41,"left_children":[1,3,5,7,9,11,13,15,17,19,21,-1,23,25,27,-1,-1,-1,-1,-1,-1,-1,-1,-1,-1,-1,-1,-1,-1],"loss_changes":[1.7114537E2,3.0118134E1,4.460236E1,1.7407318E1,1.0284461E1,6.334383E0,3.5829033E1,2.9206848E-1,4.72105E1,1.0955047E1,1.1542475E1,0E0,4.622761E0,3.0133959E1,5.00242E1,0E0,0E0,0E0,0E0,0E0,0E0,0E0,0E0,0E0,0E0,0E0,0E0,0E0,0E0],"parents":[2147483647,0,0,1,1,2,2,3,3,4,4,5,5,6,6,7,7,8,8,9,9,10,10,12,12,13,13,14,14],"right_children":[2,4,6,8,10,12,14,16,18,20,22,-1,24,26,28,-1,-1,-1,-1,-1,-1,-1,-1,-1,-1,-1,-1,-1,-1],"split_conditions":[3.4174955E-1,4.489707E-1,-1.2423286E0,5.434388E-1,5.4095393E-1,-2.8048117E0,-3.986264E-1,-2.8520343E0,1.6636822E0,1.924612E-2,8.3470887E-1,9.228083E-2,-1.3356378E0,-8.2649153E-1,6.5784705E-1,-1.44818975E-2,-5.3856004E-2,5.407328E-2,-5.425925E-2,-2.5603337E-2,2.7937239E-2,-4.707938E-2,7.9431266E-2,-4.7680743E-2,-1.1003713E-2,3.2413844E-2,-3.699326E-2,1.1659022E-2,4.565536E-2],"split_indices":[1,0,5,4,3,3,4,6,4,1,6,0,5,6,0,0,0,0,0,0,0,0,0,0,0,0,0,0,0],"split_type":[0,0,0,0,0,0,0,0,0,0,0,0,0,0,0,0,0,0,0,0,0,0,0,0,0,0,0,0,0],"sum_hessian":[3.3043455E3,9.7530255E2,2.329043E3,7.3129956E2,2.4400293E2,1.6976184E2,2.159281E3,5.5379236E2,1.7750723E2,1.6732318E2,7.6679756E1,2.9541297E0,1.6680771E2,2.8188953E2,1.8773916E3,2.7651458E0,5.510272E2,5.9945244E1,1.1756198E2,5.736815E1,1.0995503E2,6.95559E1,7.123853E0,1.1735636E2,4.9451355E1,9.217776E1,1.8971176E2,1.2006938E3,6.7669775E2],"tree_param":{"num_deleted":"0","num_feature":"7","num_nodes":"29","size_leaf_vector":"1"}},{"base_weights":[-4.735734E-3,3.838014E-1,-2.9306692E-1,4.6521103E-1,-6.958951E-2,-3.453025E-1,8.107423E-1,-1.3165793E-1,5.161619E-1,-5.6892116E-2,7.3855E-2,-2.3966065E-1,-5.318922E-1,-6.396484E-2,9.093553E-1,3.4877837E-2,-4.8308674E-2,5.682968E-2,5.57654E-3,6.399301E-2,-2.653484E-2,-1.3961648E-2,-4.2757552E-2,-7.638506E-3,-5.4287173E-2,1.0003816E-1,-7.978214E-3],"categories":[],"categories_nodes":[],"categories_segments":[],"categories_sizes":[],"default_left":[0,0,0,0,0,0,0,0,0,0,0,0,0,0,0,0,0,0,0,0,0,0,0,0,0,0,0],"id":42,"left_children":[1,3,5,7,9,11,13,15,17,-1,19,21,23,-1,25,-1,-1,-1,-1,-1,-1,-1,-1,-1,-1,-1,-1],"loss_changes":[3.599926E2,5.055748E1,1.0663443E2,3.536342E1,1.5029365E1,3.4603043E1,1.2545208E1,1.5715025E1,2.5640076E1,0E0,3.155131E1,2.1124084E1,3.139923E0,0E0,7.1687393E0,0E0,0E0,0E0,0E0,0E0,0E0,0E0,0E0,0E0,0E0,0E0,0E0],"parents":[2147483647,0,0,1,1,2,2,3,3,4,4,5,5,6,6,7,7,8,8,10,10,11,11,12,12,14,14],"right_children":[2,4,6,8,10,12,14,16,18,-1,20,22,24,-1,26,-1,-1,-1,-1,-1,-1,-1,-1,-1,-1,-1,-1],"split_conditions":[3.265581E-1,5.434388E-1,1.9228157E0,-9.900077E-1,-7.3473763E-1,6.989871E-1,3.4174955E-1,-6.5520227E-1,3.5417736E-1,-5.6892116E-2,-9.519752E-2,6.2728757E-1,3.8065997E-1,-6.396484E-2,7.090031E-1,3.4877837E-2,-4.8308674E-2,5.682968E-2,5.57654E-3,6.399301E-2,-2.653484E-2,-1.3961648E-2,-4.2757552E-2,-7.638506E-3,-5.4287173E-2,1.0003816E-1,-7.978214E-3],"split_indices":[3,4,6,4,6,1,1,3,1,0,5,0,3,0,0,0,0,0,0,0,0,0,0,0,0,0,0],"split_type":[0,0,0,0,0,0,0,0,0,0,0,0,0,0,0,0,0,0,0,0,0,0,0,0,0,0,0],"sum_hessian":[3.2114304E3,1.3678585E3,1.8435719E3,1.1596151E3,2.082434E2,1.7609268E3,8.264514E1,9.107896E1,1.0685361E3,4.5810497E1,1.6243289E2,1.1258096E3,6.351172E2,4.9120927E0,7.7733055E1,3.84803E1,5.2598656E1,9.5963385E2,1.0890231E2,6.0530617E1,1.0190228E2,7.358125E2,3.8999704E2,1.5135785E1,6.199814E2,7.117201E1,6.5610375E0],"tree_param":{"num_deleted":"0","num_feature":"7","num_nodes":"27","size_leaf_vector":"1"}},{"base_weights":[5.9627974E-4,2.8524703E-1,-2.2938755E-1,-2.7520224E-1,3.815767E-1,-4.127612E-1,5.1100228E-2,-4.2818537E-1,1.7854129E-1,7.9410785E-1,2.7110687E-1,-5.3399396E-1,-2.4629219E-1,5.7881117E-1,-9.4961375E-2,-7.594937E-3,-5.2571047E-2,1.1123766E-1,-3.0143384E-2,3.706295E-2,1.01936296E-1,3.8118046E-2,-4.521315E-2,9.251845E-3,-5.5064797E-2,-8.984666E-3,-5.141939E-2,1.0942093E-1,3.2733615E-2,-2.6497317E-2,5.0098058E-2],"categories":[],"categories_nodes":[],"categories_segments":[],"categories_sizes":[],"default_left":[0,0,0,0,0,0,0,0,0,0,0,0,0,0,0,0,0,0,0,0,0,0,0,0,0,0,0,0,0,0,0],"id":43,"left_children":[1,3,5,7,9,11,13,15,17,19,21,23,25,27,29,-1,-1,-1,-1,-1,-1,-1,-1,-1,-1,-1,-1,-1,-1,-1,-1],"loss_changes":[2.1264197E2,7.8472115E1,9.24279E1,1.4895342E1,5.6252655E1,2.1795334E1,5.486722E1,5.454582E0,2.4778513E1,2.4538727E1,7.81005E1,6.6013794E0,1.9219997E1,1.9640575E1,5.664995E1,0E0,0E0,0E0,0E0,0E0,0E0,0E0,0E0,0E0,0E0,0E0,0E0,0E0,0E0,0E0,0E0],"parents":[2147483647,0,0,1,1,2,2,3,3,4,4,5,5,6,6,7,7,8,8,9,9,10,10,11,11,12,12,13,13,14,14],"right_children":[2,4,6,8,10,12,14,16,18,20,22,24,26,28,30,-1,-1,-1,-1,-1,-1,-1,-1,-1,-1,-1,-1,-1,-1,-1,-1],"split_conditions":[3.783091E-1,-9.349167E-1,3.7606594E-1,1.6636822E0,-5.579564E-1,-2.887832E-2,-9.4794065E-1,-9.0517884E-1,-1.0854784E-1,-6.5520227E-1,8.0896276E-1,2.0731183E-2,6.66588E-1,4.6306163E-1,1.4383184E0,-7.594937E-3,-5.2571047E-2,1.1123766E-1,-3.0143384E-2,3.706295E-2,1.01936296E-1,3.8118046E-2,-4.521315E-2,9.251845E-3,-5.5064797E-2,-8.984666E-3,-5.141939E-2,1.0942093E-1,3.2733615E-2,-2.6497317E-2,5.0098058E-2],"split_indices":[0,5,5,4,4,5,4,4,1,3,6,3,1,2,4,0,0,0,0,0,0,0,0,0,0,0,0,0,0,0,0],"split_type":[0,0,0,0,0,0,0,0,0,0,0,0,0,0,0,0,0,0,0,0,0,0,0,0,0,0,0,0,0,0,0],"sum_hessian":[3.2461753E3,1.4505682E3,1.795607E3,2.1248227E2,1.2380859E3,1.0854827E3,7.101243E2,1.5894804E2,5.353422E1,2.6020508E2,9.7788086E2,6.2680084E2,4.5868182E2,1.5329973E2,5.568246E2,3.485161E1,1.24096436E2,1.7727055E1,3.5807167E1,9.12677E1,1.6893738E2,8.491214E2,1.2875946E2,1.6112318E1,6.1068854E2,2.904211E2,1.6826073E2,4.917151E1,1.0412823E2,4.336634E2,1.23161194E2],"tree_param":{"num_deleted":"0","num_feature":"7","num_nodes":"31","size_leaf_vector":"1"}},{"base_weights":[-3.2097695E-3,5.703724E-1,-1.3119532E-1,-5.201025E-1,7.130431E-1,-5.387178E-1,-2.5093332E-2,-5.360924E-1,2.2631574E-2,8.187827E-1,4.8232594E-1,-5.619453E-1,-6.0799636E-2,7.956123E-2,-5.3420013E-1,-5.5129703E-2,1.8997904E-2,2.0396926E-2,8.764306E-2,2.4561388E-2,8.10039E-2,8.340801E-3,-5.6418013E-2,-2.516065E-2,1.1731072E-1,2.0087807E-2,-9.097104E-3,-2.1998333E-3,-5.4055896E-2],"categories":[],"categories_nodes":[],"categories_segments":[],"categories_sizes":[],"default_left":[0,0,0,0,0,0,0,0,0,0,0,0,0,0,0,0,0,0,0,0,0,0,0,0,0,0,0,0,0],"id":44,"left_children":[1,3,5,7,9,11,13,15,-1,17,19,21,23,25,27,-1,-1,-1,-1,-1,-1,-1,-1,-1,-1,-1,-1,-1,-1],"loss_changes":[2.3719511E2,9.207558E1,1.1420774E2,9.4216347E-1,1.23316345E1,6.0229645E0,1.1177052E2,8.513336E-1,0E0,1.244902E1,1.2707752E1,7.973633E-1,6.5133843E0,3.6022152E1,1.1530991E0,0E0,0E0,0E0,0E0,0E0,0E0,0E0,0E0,0E0,0E0,0E0,0E0,0E0,0E0],"parents":[2147483647,0,0,1,1,2,2,3,3,4,4,5,5,6,6,7,7,9,9,10,10,11,11,12,12,13,13,14,14],"right_children":[2,4,6,8,10,12,14,16,-1,18,20,22,24,26,28,-1,-1,-1,-1,-1,-1,-1,-1,-1,-1,-1,-1,-1,-1],"split_conditions":[-1.2283976E0,7.732138E-2,-2.5702113E-2,-1.2423286E0,6.04434E-1,1.6821754E0,6.666483E-1,2.0802984E0,2.2631574E-2,-1.0854784E-1,5.7505506E-1,-1.1135186E0,2.0699525E0,5.4633874E-1,5.7463888E-2,-5.5129703E-2,1.8997904E-2,2.0396926E-2,8.764306E-2,2.4561388E-2,8.10039E-2,8.340801E-3,-5.6418013E-2,-2.516065E-2,1.1731072E-1,2.0087807E-2,-9.097104E-3,-2.1998333E-3,-5.4055896E-2],"split_indices":[5,2,3,5,1,5,5,4,0,1,2,4,4,2,3,0,0,0,0,0,0,0,0,0,0,0,0,0,0],"split_type":[0,0,0,0,0,0,0,0,0,0,0,0,0,0,0,0,0,0,0,0,0,0,0,0,0,0,0,0,0],"sum_hessian":[3.2290715E3,5.8844226E2,2.6406292E3,6.7774666E1,5.206676E2,5.4464575E2,2.0959834E3,6.6629105E1,1.1455609E0,3.5528748E2,1.6538014E2,5.1923444E2,2.5411312E1,1.73929E3,3.566935E2,6.549822E1,1.1308807E0,3.0846651E1,3.2444083E2,9.7037766E1,6.834237E1,1.666562E0,5.175679E2,2.2697538E1,2.7137747E0,1.016192E3,7.23098E2,4.428603E0,3.5226492E2],"tree_param":{"num_deleted":"0","num_feature":"7","num_nodes":"29","size_leaf_vector":"1"}},{"base_weights":[4.3466184E-3,-3.6346838E-1,1.48352E-1,-2.235101E-2,-4.360599E-1,-1.9766163E-2,2.5303364E-1,7.0326793E-1,-1.5048115E-1,-5.0094265E-1,-2.2563657E-1,-2.6390222E-1,2.2501697E-1,3.6929643E-1,1.15110844E-1,9.849047E-2,4.6827123E-2,7.696021E-2,-2.2134257E-2,-5.4368664E-2,-3.372707E-2,4.002829E-3,-3.9084166E-2,-3.923916E-2,3.8153753E-3,-2.959694E-2,3.4899864E-2,2.4719417E-2,6.6813864E-2,-1.3548938E-2,3.1442445E-2],"categories":[],"categories_nodes":[],"categories_segments":[],"categories_sizes":[],"default_left":[0,0,0,0,0,0,0,0,0,0,0,0,0,0,0,0,0,0,0,0,0,0,0,0,0,0,0,0,0,0,0],"id":45,"left_children":[1,3,5,7,9,11,13,15,17,19,21,23,25,27,29,-1,-1,-1,-1,-1,-1,-1,-1,-1,-1,-1,-1,-1,-1,-1,-1],"loss_changes":[1.7442111E2,2.2932884E1,4.1652016E1,1.5318702E1,1.0316269E1,5.4382168E1,2.3344124E1,1.175725E0,9.291118E0,3.8955994E0,7.9968853E0,1.7695963E1,2.9457033E1,2.8694633E1,3.343471E1,0E0,0E0,0E0,0E0,0E0,0E0,0E0,0E0,0E0,0E0,0E0,0E0,0E0,0E0,0E0,0E0],"parents":[2147483647,0,0,1,1,2,2,3,3,4,4,5,5,6,6,7,7,8,8,9,9,10,10,11,11,12,12,13,13,14,14],"right_children":[2,4,6,8,10,12,14,16,18,20,22,24,26,28,30,-1,-1,-1,-1,-1,-1,-1,-1,-1,-1,-1,-1,-1,-1,-1,-1],"split_conditions":[4.131821E-1,-6.6941655E-1,5.617854E-1,-2.6554275E0,4.9361268E-1,2.4041837E-1,1.1799069E-1,-2.3678086E0,-1.5225677E0,-1.07383706E-1,4.8987985E-1,6.828837E-1,4.859551E-1,6.795472E-1,4.833468E-1,